/*
 * denoise_matlab_weights.h — Auto-generated weight data
 * Total tensors: 271
 */
#ifndef DENOISE_MATLAB_WEIGHTS_H
#define DENOISE_MATLAB_WEIGHTS_H
#include <stdint.h>
#ifdef __cplusplus
extern "C" {
#endif

/* decoder_de_convs_0_depth_act_weight: shape (1, 1), Q-format: s16f14, 1 elements */
static const int16_t decoder_de_convs_0_depth_act_weight[1] = {
    -4267
};

/* decoder_de_convs_0_depth_bn_bias: shape (16, 1), Q-format: s32f20, 16 elements */
static const int32_t decoder_de_convs_0_depth_bn_bias[16] = {
    536151, 141898, 350863, -153037, 222288, 41894, 15605, 681582,
    -399726, 462582, 116523, 663067, 319547, 55962, 871242, 451252
};

/* decoder_de_convs_0_depth_bn_num_batches_tracked: shape (1, 1), Q-format: s32f20, 1 elements */
static const int32_t decoder_de_convs_0_depth_bn_num_batches_tracked[1] = {
    2147483647
};

/* decoder_de_convs_0_depth_bn_running_mean: shape (16, 1), Q-format: s32f20, 16 elements */
static const int32_t decoder_de_convs_0_depth_bn_running_mean[16] = {
    321749, -350122, 199121, 65609, -392086, -473074, -272640, -1175075,
    -469884, 56578, -1425658, 197239, -403374, -312124, 476352, 316802
};

/* decoder_de_convs_0_depth_bn_running_var: shape (1, 16), Q-format: u16f12, 16 elements */
static const uint16_t decoder_de_convs_0_depth_bn_running_var[16] = {
    4178, 19942, 6889, 8061, 6279, 16814, 30231, 3449,
    13539, 6314, 7293, 5149, 7246, 6459, 29787, 4598
};

/* decoder_de_convs_0_depth_bn_weight: shape (16, 1), Q-format: u16f14, 16 elements */
static const uint16_t decoder_de_convs_0_depth_bn_weight[16] = {
    14899, 21128, 14980, 16435, 13650, 14383, 16608, 12826,
    15471, 21798, 19592, 16625, 14980, 16920, 18728, 18976
};

/* decoder_de_convs_0_depth_conv_bias: shape (1, 16), Q-format: s32f20, 16 elements */
static const int32_t decoder_de_convs_0_depth_conv_bias[16] = {
    146238, -493809, -127572, 5741, -208582, -15268, -210030, 182067,
    -30789, 345028, 191811, 241185, -201562, -387406, 224288, -18125
};

/* decoder_de_convs_0_depth_conv_weight: shape (16, 1, 3, 3), Q-format: s16f12, 144 elements */
static const int16_t decoder_de_convs_0_depth_conv_weight[144] = {
    5822, -115, -617, 270, 280, -26, 156, 280,
    -179, -4258, 1319, 290, -242, 125, -27, -194,
    17, -25, -7064, -2969, -55, 332, 946, 31,
    33, -219, 346, 3634, -183, 2126, -202, -2,
    -255, -75, -118, -124, 5885, 1334, -271, -139,
    -179, 730, 12, -336, 718, 1406, 4417, 1930,
    31, 702, 130, 186, 573, 147, 3538, -1243,
    -379, 336, -554, -248, 248, -340, -120, -4016,
    -4300, -3027, -505, -127, -234, -607, -414, 278,
    -193, 4172, 3515, -151, 994, -338, 257, 30,
    323, -3444, -2149, 1815, 453, 621, -465, 378,
    -463, 181, 535, -3373, -4822, 190, -348, -595,
    454, -546, -251, 5883, 2065, -472, -635, -110,
    416, -285, -256, 265, 3211, 3358, 1498, 436,
    -656, 329, 69, 105, -82, 3495, -901, -2147,
    -134, 137, -133, 188, -107, 48, -2119, 1617,
    -3781, 325, 97, -442, -224, 263, -286, 1222,
    3235, 2223, -34, -95, 184, -34, -53, 164
};

/* decoder_de_convs_0_point_act_weight: shape (1, 1), Q-format: s16f14, 1 elements */
static const int16_t decoder_de_convs_0_point_act_weight[1] = {
    5999
};

/* decoder_de_convs_0_point_bn1_bias: shape (1, 16), Q-format: s32f20, 16 elements */
static const int32_t decoder_de_convs_0_point_bn1_bias[16] = {
    -152216, -586974, -519337, -270534, -484295, -568949, -635055, 298699,
    -602873, 385694, 771989, -362149, -427937, 269626, -658758, -117567
};

/* decoder_de_convs_0_point_bn1_num_batches_tracked: shape (1, 1), Q-format: s32f20, 1 elements */
static const int32_t decoder_de_convs_0_point_bn1_num_batches_tracked[1] = {
    2147483647
};

/* decoder_de_convs_0_point_bn1_running_mean: shape (1, 16), Q-format: s32f20, 16 elements */
static const int32_t decoder_de_convs_0_point_bn1_running_mean[16] = {
    -803219, 499370, 1545918, 445893, -2197261, -3354696, 2010646, -928813,
    989729, 2068914, -238967, -2958032, -2184520, -1866366, 1912841, -2712380
};

/* decoder_de_convs_0_point_bn1_running_var: shape (1, 16), Q-format: u16f13, 16 elements */
static const uint16_t decoder_de_convs_0_point_bn1_running_var[16] = {
    4930, 5170, 4590, 4048, 4015, 4853, 4358, 4565,
    3066, 3406, 2801, 2793, 4736, 4755, 2776, 4370
};

/* decoder_de_convs_0_point_bn1_weight: shape (1, 16), Q-format: u16f14, 16 elements */
static const uint16_t decoder_de_convs_0_point_bn1_weight[16] = {
    15952, 6898, 9281, 15695, 12737, 6686, 6568, 14329,
    6146, 11984, 4824, 12026, 10296, 16059, 5995, 18362
};

/* decoder_de_convs_0_point_bn2_bias: shape (1, 8), Q-format: s32f20, 8 elements */
static const int32_t decoder_de_convs_0_point_bn2_bias[8] = {
    862501, 699991, -160404, -937689, -577138, 310188, 789619, 193061
};

/* decoder_de_convs_0_point_bn2_num_batches_tracked: shape (1, 1), Q-format: s32f20, 1 elements */
static const int32_t decoder_de_convs_0_point_bn2_num_batches_tracked[1] = {
    2147483647
};

/* decoder_de_convs_0_point_bn2_running_mean: shape (1, 8), Q-format: s32f20, 8 elements */
static const int32_t decoder_de_convs_0_point_bn2_running_mean[8] = {
    1378546, 390983, -246487, -189864, -821766, 1042053, 133868, -820464
};

/* decoder_de_convs_0_point_bn2_running_var: shape (1, 8), Q-format: u16f14, 8 elements */
static const uint16_t decoder_de_convs_0_point_bn2_running_var[8] = {
    10969, 18238, 16107, 21001, 16684, 15341, 16766, 15278
};

/* decoder_de_convs_0_point_bn2_weight: shape (1, 8), Q-format: u16f14, 8 elements */
static const uint16_t decoder_de_convs_0_point_bn2_weight[8] = {
    16727, 20153, 19599, 18691, 19503, 20795, 18052, 21321
};

/* decoder_de_convs_0_point_conv1_bias: shape (1, 16), Q-format: s32f20, 16 elements */
static const int32_t decoder_de_convs_0_point_conv1_bias[16] = {
    -75324, -124568, 184770, -240948, -122542, -140388, 159998, -16288,
    -33222, -20008, 225006, -217177, -172380, 10456, -63982, -162560
};

/* decoder_de_convs_0_point_conv1_weight: shape (24, 16, 1, 1), Q-format: s16f13, 384 elements */
static const int16_t decoder_de_convs_0_point_conv1_weight[384] = {
    1063, -413, 1007, 4447, 1406, 1081, 804, 3249,
    -3067, -626, 1524, -912, -1585, 966, -90, -2193,
    -1275, -1830, -332, 690, 2563, 150, -5185, -13,
    -887, 1070, -5955, -3017, 770, -3898, -816, -2259,
    4240, 1677, 1882, -1869, -1294, -68, 649, 2012,
    -3893, 2519, -1749, 1345, -1758, 968, -2971, 3737,
    740, -584, -675, 3513, -276, -1494, -262, 4201,
    2085, 2356, 1626, -1053, -4016, -418, -129, -1151,
    -821, -2212, 3351, -497, 1075, -3463, 31, -5170,
    -1399, 444, -5389, -11281, -2283, -3651, 880, -2417,
    -1977, 4204, -847, -2779, -4976, -1995, 1357, 4259,
    -6231, 1311, 415, 2365, -744, 545, 2406, 1472,
    243, 133, -2630, 923, -2767, -5221, -5330, 718,
    -1254, 4052, 1410, 1270, -3235, 501, -4316, 177,
    -2658, 3133, -3716, 279, -577, 3562, 103, 3018,
    1287, 1015, 3397, 2072, -2993, -2644, -3906, 3251,
    -670, -1884, 601, -325, -645, 668, -2641, -197,
    -368, 1865, 2716, -571, -1226, 47, -482, -1035,
    788, -475, -285, -809, -3659, 1607, -2481, 1164,
    -2331, -2508, 2455, 1916, 1518, -743, 352, 269,
    1818, -1591, 89, -2127, 2435, -2209, 1057, -2323,
    1488, 171, -2969, -2149, -5193, -348, 2380, 2346,
    -1632, 4718, -1705, 279, -3794, 974, -2445, 1148,
    1295, 3538, -1824, -3542, -2083, -4119, -5812, -4277,
    -1175, -134, -706, -3146, -2912, 4365, -4615, 956,
    744, -1639, -754, -460, 625, 4128, -1810, -743,
    7504, -365, 5776, 1400, -2537, -429, 1968, -2254,
    840, 1714, -3177, 864, -910, 1900, -1979, 1116,
    -1627, -2184, 965, 578, -813, 94, -749, 1918,
    562, -2444, -1567, 697, 3148, 219, -948, 792,
    -1330, 1137, 419, 5654, -1699, -4274, 628, -2043,
    2378, -299, 399, 1103, -2330, -297, -2225, -3257,
    -2327, 3839, -1017, -1635, -2835, 2686, -1606, 2082,
    582, -1302, 1876, -2979, 451, -1291, -232, -4221,
    2013, -5788, 1000, -3411, -2298, 892, 1195, -1824,
    3617, 1128, 2435, -310, -1741, -1888, 2912, 4242,
    -1672, 1237, -5476, 5241, 2794, 1285, -1309, 1478,
    5653, 4584, -528, 2577, -4647, -1404, 1185, -2343,
    1450, 1104, -56, 72, 1359, -1799, 1229, -860,
    -1262, 1928, 1738, 2490, 120, -1575, -1591, -460,
    -1248, 1775, 2384, -1871, -686, 274, 623, -2685,
    -914, -5966, -1740, 2464, 885, -192, 3842, 1799,
    -2030, 541, -2747, -960, 1953, 5579, 2640, 1249,
    -17, -5915, -1950, -1943, 3023, -5811, 3236, 920,
    -3574, 2665, -3798, -2229, -1517, 1279, -1754, 1215,
    757, -4505, -1257, -218, -894, 4185, 3068, 1259,
    4865, -2093, 1879, -1716, 4134, -420, 616, -2018,
    -3628, -3543, 612, 317, -1303, 510, 1553, 1964
};

/* decoder_de_convs_0_point_conv2_bias: shape (1, 8), Q-format: s32f20, 8 elements */
static const int32_t decoder_de_convs_0_point_conv2_bias[8] = {
    147179, -12393, 139903, -76237, -309092, 95540, -353244, -39876
};

/* decoder_de_convs_0_point_conv2_weight: shape (16, 8, 1, 1), Q-format: s16f13, 128 elements */
static const int16_t decoder_de_convs_0_point_conv2_weight[128] = {
    -2647, 4129, -1450, 1633, -2279, 1778, 63, -1851,
    781, -1435, 2925, -4777, 193, -4825, 1250, 487,
    2989, -1999, -3302, 546, -4436, 2024, 3498, 3582,
    679, 664, -1928, 2346, 3646, 1173, -602, -4699,
    -1992, 572, -1481, -3869, 587, 1705, -1513, -3095,
    1547, -2262, 1815, 1213, 1196, -1071, -2694, -853,
    1289, 1264, -3653, 3073, 773, 4426, 636, -483,
    1086, 2250, -1741, 1362, 3880, 3233, 430, -1649,
    2203, -5232, -3684, 423, 2514, -1804, 2381, 330,
    1008, -3416, -4044, 145, -5851, 109, 3113, -4113,
    -1278, -1150, 3237, -3790, -4307, -1079, -4520, 755,
    10667, 1363, 390, -1507, 799, 2842, 303, -2860,
    -1082, 2451, -378, 2306, 1643, 2158, -3481, 3057,
    -1985, 4534, 682, 3007, 745, 2499, -2665, -3853,
    -353, 1772, 5793, -1788, -2761, -2757, 6056, -815,
    1143, 253, -2011, 1341, 1986, 3192, -1123, 5401
};

/* decoder_de_convs_0_tra_att_fc_bias: shape (8, 1), Q-format: s32f20, 8 elements */
static const int32_t decoder_de_convs_0_tra_att_fc_bias[8] = {
    211358, -543136, 286782, 41306, -1475764, -65623, -343240, -1138438
};

/* decoder_de_convs_0_tra_att_fc_weight: shape (16, 8), Q-format: s16f13, 128 elements */
static const int16_t decoder_de_convs_0_tra_att_fc_weight[128] = {
    4457, 8570, -8691, -8379, -5076, -2780, -844, -769,
    9434, 6112, 3111, 14701, 3610, 2813, 5050, 2375,
    4333, -971, 3569, 5866, 5445, -2107, 5333, 1669,
    -2176, -3131, 1099, -5995, -5859, 3630, -7636, -8657,
    -5265, 13473, -7042, -5808, 10549, 191, 3546, 1520,
    -4029, 3346, -2365, 1195, 2344, -2876, -772, 6017,
    103, -1263, -2419, -1170, -7727, 613, 221, -405,
    -11103, 7138, 3642, -8103, 1694, 2252, 7017, 9080,
    1652, 3483, -6945, -9667, -6233, 2221, -7019, -72,
    -4684, -2681, 4004, 1840, -11521, 2385, 3807, 6645,
    -1869, 3763, -1815, 10383, 8971, 1037, 5406, 8756,
    7063, -190, -1519, 3656, 6148, -641, 7172, -3530,
    -4894, 1234, -3177, 510, 7803, -3514, -2281, -3045,
    2268, -692, 5071, 3541, -1656, -865, 3430, 1455,
    -2829, 8606, -3928, -7827, 1809, 765, -11079, -4781,
    9062, 3462, -6512, 9024, -2226, -770, -178, -1534
};

/* decoder_de_convs_0_tra_att_gru_bias_hh_l0: shape (48, 1), Q-format: s32f18, 48 elements */
static const int32_t decoder_de_convs_0_tra_att_gru_bias_hh_l0[48] = {
    -76625, -76603, 54142, 5136, 18707, 104262, -50603, 10444,
    54114, -57530, -74039, 11700, -60607, 19538, 57396, 64630,
    36326, 40360, -13646, 25150, -143192, 104884, 161784, -172701,
    55960, 187100, 153435, 132263, 198389, 70383, -86609, -51072,
    137537, -22121, -5692, 6235, -54284, 15853, 85664, -100007,
    59749, 30782, -187460, -73906, 37411, -89613, -72355, -199476
};

/* decoder_de_convs_0_tra_att_gru_bias_ih_l0: shape (48, 1), Q-format: s32f18, 48 elements */
static const int32_t decoder_de_convs_0_tra_att_gru_bias_ih_l0[48] = {
    -156380, -57098, 3823, -74891, 15551, 38227, -29588, -89571,
    -37420, 12926, -102811, -20241, -99957, 69190, 70841, -29360,
    -1030, 54493, -10600, 84826, -185648, 73222, 143641, -218553,
    -7271, 132569, 55684, 54962, 185485, 39082, -54639, -111391,
    13306, -35019, 31685, -50949, 5325, 56447, -21008, -86624,
    23977, -2822, -8516, -31505, -92693, -16329, -33136, 42449
};

/* decoder_de_convs_0_tra_att_gru_weight_hh_l0: shape (16, 48), Q-format: s16f13, 768 elements */
static const int16_t decoder_de_convs_0_tra_att_gru_weight_hh_l0[768] = {
    -1096, 1307, 7336, 2593, 9093, -6254, 2353, 479,
    -2068, -4212, 4043, 2030, -7925, -1033, 1566, -1609,
    4601, -2117, -6442, -1125, 2097, -902, 2426, -2663,
    1453, 147, 1006, 7065, -1142, 5442, 8678, 4391,
    -744, 809, 3760, 1368, -1196, 7581, -416, -343,
    -4742, -1081, 1510, 499, -2231, -3574, -5902, 179,
    -404, 4564, 3024, 5888, -1236, -4798, 1718, 130,
    467, -11483, -79, -431, 2133, 3731, 162, -2542,
    -3224, 1631, 515, 1498, -3945, -10431, 4624, -3067,
    -1354, -2614, -2715, -7401, 2476, 829, -3426, -2837,
    -2127, -2553, 897, -237, -4957, 7021, -656, 305,
    -3944, -1677, 1751, 1258, 143, -1323, -1136, 246,
    5425, 2633, 1730, 2652, 1950, 224, 3143, -110,
    2042, 1826, 3470, -1751, 1337, 1049, -694, 3408,
    -1495, -7066, 11284, -1650, -577, -5705, -310, 503,
    -4401, -7524, 3755, 881, -1201, 288, 3764, -5147,
    -2924, 1096, -5325, 788, -1967, -522, -2908, 3586,
    -742, 794, 6239, 1298, -5698, -1467, 3307, 1220,
    4429, 8384, -2038, 4127, 3159, 3770, -1326, 2265,
    -6071, -4138, -4369, -620, 11046, 6307, 763, -4,
    6009, 7498, -14436, 9689, -16177, 1334, 6590, -2325,
    -3522, 4397, -360, -44, 6910, 3710, 426, 4117,
    1327, -3826, 2682, 310, 931, 914, 2199, -468,
    -1665, 728, 1922, 797, 3472, -4749, 1520, -2126,
    -5985, -146, 12104, 605, 2387, 524, 6938, -7225,
    -5560, 4249, 12672, 3144, -12106, -908, -7399, -447,
    -2024, -384, 2730, 443, -783, -111, -1897, 3252,
    -4199, -9, 6033, 4559, 732, 1422, -9206, -1187,
    5039, -1924, 3810, 2789, -2331, -4324, 5457, 2133,
    -773, -5545, -6430, 1601, -316, -2991, -3397, 1076,
    3940, -8775, 2713, -4848, -8792, -1643, -3431, -1848,
    4315, -4738, 2981, 779, -223, -2978, 811, -991,
    -4496, -6723, 11281, -128, 2360, -2655, -1463, 2634,
    8086, 619, 13077, -2851, -2466, 622, -5871, -4447,
    506, 4185, -5378, -991, -2369, 3076, 1251, -1674,
    2255, -6089, -2454, 3316, 3816, 9351, 1104, 2940,
    8909, -3305, -1389, 5197, 6718, -3933, -5329, 576,
    -5814, -4031, -423, -1227, -8199, -5728, -8066, -2052,
    -13452, -8688, 6223, 7250, 11891, 10370, -1465, -961,
    0, -4180, 909, -5818, -5563, -1831, 20209, 125,
    -3309, 5362, -5576, -4593, -3506, -1040, -3682, -267,
    -1889, 6275, 4264, -3377, 4890, 1005, 6519, -2373,
    -8095, -918, 7295, 5462, 6394, 11388, 2173, 3192,
    -3183, 8324, 8212, 702, 3027, 1627, 2016, -1532,
    17264, -9086, 11603, -7327, 137, -2011, -2181, 3,
    -6072, 1090, -9248, 1999, -4656, -1669, 1888, 3758,
    -1835, 8261, 3676, 3003, 3749, -11946, 4688, -1034,
    8543, -6, 251, -1067, 2743, 7873, 535, 1044,
    -9354, -3189, -4035, -38, 5696, -3880, -1580, 1733,
    -5903, 4687, -5702, 3266, -1349, -4153, 6531, 4757,
    6053, -2205, -5525, 1837, 1219, -514, 2750, -2181,
    609, -1616, -6262, 3399, 3304, 4828, -4660, -13970,
    4316, 223, 6277, 5954, 3150, 2264, 3344, -1122,
    -3973, -3455, -674, 1274, -6072, -2338, -7095, 1449,
    -3003, 1996, -9626, -2779, 2313, 570, 1544, 965,
    -863, -3783, 2731, 4032, -796, -1577, -222, -9338,
    1725, -891, -5349, -807, -6301, 11605, 692, -3902,
    -1886, 5809, 6118, -3781, 232, 1623, 117, -1653,
    -1012, -3110, 2468, -846, -1507, -1728, 1058, 3187,
    -1087, 9576, -2080, 1649, 295, -6381, 1831, 6205,
    3707, 562, 300, -2410, -426, -3224, 2038, 2003,
    232, 1122, 2469, 1406, 4136, -136, -1460, 1684,
    -224, -3598, 19671, -3994, 5746, -3964, -5770, -634,
    -3557, -3637, -10117, 2165, -1322, 894, -2403, -4033,
    -5414, 2197, -268, -2058, -863, 49, 850, 4907,
    -2080, -463, 2266, 1113, -697, 1722, 3407, 3125,
    491, 1077, -1818, 6190, -4510, -3423, 1415, 1419,
    -614, -480, 2909, -2857, -1404, 2952, 2645, 3338,
    -4434, -4430, 7513, -1906, 2096, 2014, 1566, 1987,
    -1988, -2844, 1657, 1734, 87, -1917, -3289, 1151,
    1287, 4099, -102, 5965, -2616, -3006, -3389, -268,
    -1214, 1507, 1013, -982, -95, -3565, -392, 605,
    -404, 4731, 204, -7125, 1927, 3836, 800, -2073,
    1705, 3585, 1353, 1646, -2610, -4520, -6174, -485,
    335, -6999, 18047, 5705, 69, 12850, -2059, -3004,
    5784, -7003, -3151, 41, 1535, -5838, -8114, -8437,
    -9773, 3984, -3536, -1593, 1791, 974, 1749, -1488,
    -249, 1039, -1937, -7431, 618, 2704, 6440, 5120,
    6011, 3124, 810, -852, -3945, 248, -4943, -1977,
    5168, 3454, -2164, -2889, -3074, -6571, -4081, 548,
    2036, 671, 4712, -2205, -8667, 4835, -1372, 3084,
    -1569, -999, -1608, 6251, -6942, -3638, 13041, 1804,
    137, 6521, -4241, -7223, 7234, -1027, 1105, -3988,
    1578, -8576, 4845, -5130, -2343, 3711, 2841, 1479,
    13823, 2744, 3940, -296, -5301, -3892, 2944, -1315,
    -5431, 2649, -1476, 2313, 1637, -5148, 481, -3844,
    2791, -2736, 8204, 3547, -2348, -1305, -5800, -865,
    -2093, -4323, -10423, 595, 1336, -4270, 4805, -2773,
    -1487, 2160, -716, -1037, -974, -3711, 5529, -1541,
    -978, 959, 2487, -3511, 8024, 1922, 1126, 1305,
    852, -165, 1104, -2498, 951, 2589, -2163, -4692,
    -1404, -12403, 8110, 2458, -6690, -10386, 1508, 5759,
    3519, 10542, -10009, -5805, -1437, -18635, -371, 2605,
    -5885, -7536, -5328, 1025, 1134, -4378, 3647, 3020,
    2884, -2611, 2989, -3009, 4015, 5321, -163, 292,
    -2544, 4355, 1947, -5314, 357, 3679, -1802, -250
};

/* decoder_de_convs_0_tra_att_gru_weight_ih_l0: shape (8, 48), Q-format: s16f13, 384 elements */
static const int16_t decoder_de_convs_0_tra_att_gru_weight_ih_l0[384] = {
    11633, -651, 5227, 1251, 464, 659, -2069, 3349,
    4056, 449, -2320, -2406, -653, 3307, -1029, -2406,
    -3749, -3142, 1523, 3312, 4644, 237, -579, 1667,
    5675, -4848, -5024, -5311, 184, 1505, 169, -1450,
    -217, 2149, -1063, 3823, -1741, -2087, -1234, -59,
    1050, -1349, -1095, 1968, -581, 1925, -967, 2300,
    -9612, -1331, 7116, -3215, 3034, 576, 4363, -1679,
    1026, 3743, 5331, 4142, -2629, -3196, -2981, 3717,
    -1371, -532, -726, -2082, 2669, 633, -637, 3069,
    -244, -402, -2038, 1181, 1355, -2432, -4130, -778,
    5185, -1138, 2161, 449, 3950, -402, 3328, -612,
    616, -846, -311, -2372, -2716, 2303, 3070, 516,
    1983, -728, 1866, 5068, -1914, 1184, -313, -3003,
    2801, 1694, -1436, 6506, -406, 5362, 1445, -4778,
    1667, -3908, -3809, 3478, 3226, -1162, 2561, 3262,
    1483, -522, 3566, -3823, -911, 384, 1581, 990,
    -5788, -475, -2736, 1070, -3485, -499, -1004, 1756,
    1187, -179, -265, -1470, -1371, -1000, -1909, -13,
    -1577, -1133, 310, 3328, -676, -1060, 2679, -790,
    -191, -4192, 1729, 3527, 5488, -3061, 1670, 1796,
    2192, -4003, 3728, 2431, 4279, 4812, 954, 2426,
    -3550, 8003, -3399, 4776, 1029, 1193, 2324, -908,
    3456, 2393, 2335, 630, -720, -2108, -1567, -4470,
    309, -222, 1207, 4101, 23, -1177, -2136, 1666,
    8370, 3610, -572, 656, -3789, -2670, -3237, -5105,
    85, -263, 1640, 3487, -2036, 2991, 942, -6774,
    -1259, -2438, 2826, 3701, -4366, 513, 1659, -2305,
    -991, 1088, 238, -548, -1809, -1360, 5310, 3648,
    -4551, -4614, 1821, -4003, -4642, 1912, -1786, -279,
    1623, 3713, -268, -642, 2719, -1782, -1153, -1181,
    1569, 2418, 4747, 2977, -2677, 1396, -1771, -1384,
    971, 2665, 1289, -908, -154, 998, -2274, -1238,
    -3623, 2775, -4680, -2478, -5635, 2209, -631, -1842,
    -2113, 3606, 930, -3357, -1571, 133, -347, -3057,
    -2739, -3036, -3828, -68, 1070, 2470, -1035, 5487,
    -249, 1303, -1438, -2628, 2789, 924, 2177, -1127,
    9581, 1425, -789, -3499, 1747, -967, 2471, 6451,
    -2238, -1690, 2981, -2611, -838, -609, -3278, 3650,
    130, -179, 1743, 394, -206, 850, -827, -2826,
    -759, 1017, -21, -1792, 94, 2113, 2816, -1726,
    -939, 1609, -3656, -956, 2630, 1343, 1015, 610,
    -3430, 1114, 1079, -5350, -1133, -1449, 4674, 203,
    1231, 8615, -3929, -2087, -709, 922, -2059, 4908,
    -2256, 5195, 6548, -3500, 2257, -2070, -547, 3805,
    -5883, 1270, 1258, -2019, -4164, -1837, -5301, -343,
    -2865, 1357, -1789, 2120, -1664, -1426, -5820, -4979,
    776, 2034, -4581, 1399, 1640, -2393, -2473, 1841,
    -1672, -1912, -346, 854, -1980, 3657, 3207, -1826
};

/* decoder_de_convs_1_depth_act_weight: shape (1, 1), Q-format: s16f14, 1 elements */
static const int16_t decoder_de_convs_1_depth_act_weight[1] = {
    7115
};

/* decoder_de_convs_1_depth_bn_bias: shape (16, 1), Q-format: s32f20, 16 elements */
static const int32_t decoder_de_convs_1_depth_bn_bias[16] = {
    -479275, 858677, -121764, -161234, 567543, 36186, -39304, -722982,
    585393, -517867, -384642, 19968, 584601, -356267, -4076134, -2692670
};

/* decoder_de_convs_1_depth_bn_num_batches_tracked: shape (1, 1), Q-format: s32f20, 1 elements */
static const int32_t decoder_de_convs_1_depth_bn_num_batches_tracked[1] = {
    2147483647
};

/* decoder_de_convs_1_depth_bn_running_mean: shape (16, 1), Q-format: s32f20, 16 elements */
static const int32_t decoder_de_convs_1_depth_bn_running_mean[16] = {
    1286161, -502178, -238923, -746078, 904685, 1071292, 1146900, -557590,
    -899308, -1331692, -518266, -259236, 180501, 1158234, -23564, 1552
};

/* decoder_de_convs_1_depth_bn_running_var: shape (1, 16), Q-format: u16f12, 16 elements */
static const uint16_t decoder_de_convs_1_depth_bn_running_var[16] = {
    4832, 5103, 5655, 3609, 4384, 4817, 6964, 6081,
    5187, 4293, 6126, 5961, 4134, 4504, 21543, 24027
};

/* decoder_de_convs_1_depth_bn_weight: shape (16, 1), Q-format: u16f14, 16 elements */
static const uint16_t decoder_de_convs_1_depth_bn_weight[16] = {
    11597, 9992, 16815, 15046, 13595, 11573, 15867, 17758,
    14045, 19569, 12313, 20461, 17208, 14892, 17023, 17046
};

/* decoder_de_convs_1_depth_conv_bias: shape (1, 16), Q-format: s32f20, 16 elements */
static const int32_t decoder_de_convs_1_depth_conv_bias[16] = {
    35503, -52582, -156504, 83, 291977, 36686, 75431, -20951,
    109996, -48025, -21052, 119899, -339228, -153628, -25101, 98
};

/* decoder_de_convs_1_depth_conv_weight: shape (16, 1, 3, 3), Q-format: s16f12, 144 elements */
static const int16_t decoder_de_convs_1_depth_conv_weight[144] = {
    2369, 854, 6258, -15, -422, 232, 92, -678,
    509, 608, 870, -4286, -149, -516, -613, 508,
    177, -2353, -1344, -1881, -1645, -468, 912, 694,
    -60, 875, 2297, -2561, -2207, -3944, 320, -628,
    -936, -372, 106, -678, -534, 4470, -290, -47,
    580, -118, -650, 1874, -280, 2194, 3595, 1640,
    321, 894, -53, -51, 1371, -610, 1693, -735,
    3782, 79, -169, 1212, 422, -438, 1406, -938,
    -3487, -1877, 11, -524, -305, -45, -1150, -125,
    -1465, -3942, -3778, 195, -70, 314, -56, 428,
    947, -2411, -5831, 29, 265, -537, 79, -117,
    -962, 724, -2239, -1060, -3706, -973, 436, -698,
    -649, 613, -1528, -58, -1786, -5245, -248, 345,
    -400, 1, -193, -995, 438, 1901, 4681, -260,
    66, 1255, -223, 282, 72, 605, 1634, 4390,
    542, 178, 1438, 253, 30, 858, 7809, 14887,
    6880, -881, -388, -189, -60, 168, -307, -2100,
    11588, 15106, 703, -583, 587, 156, -12, -663
};

/* decoder_de_convs_1_point_act_weight: shape (1, 1), Q-format: s16f14, 1 elements */
static const int16_t decoder_de_convs_1_point_act_weight[1] = {
    1
};

/* decoder_de_convs_1_point_bn1_bias: shape (1, 16), Q-format: s32f20, 16 elements */
static const int32_t decoder_de_convs_1_point_bn1_bias[16] = {
    523696, -158370, 473831, -251349, 146357, 257129, 532439, -225233,
    417234, 489284, -222677, -288327, -268516, 405936, -1078345, -1030378
};

/* decoder_de_convs_1_point_bn1_num_batches_tracked: shape (1, 1), Q-format: s32f20, 1 elements */
static const int32_t decoder_de_convs_1_point_bn1_num_batches_tracked[1] = {
    2147483647
};

/* decoder_de_convs_1_point_bn1_running_mean: shape (1, 16), Q-format: s32f20, 16 elements */
static const int32_t decoder_de_convs_1_point_bn1_running_mean[16] = {
    -1256568, -931996, 1880884, 2728937, -1004605, -3719094, 740040, -1873763,
    195844, 1485286, -3535470, 2392265, -784307, -3275896, -1340606, -1917698
};

/* decoder_de_convs_1_point_bn1_running_var: shape (1, 16), Q-format: u16f13, 16 elements */
static const uint16_t decoder_de_convs_1_point_bn1_running_var[16] = {
    8504, 7020, 4433, 5054, 5575, 4237, 5697, 6713,
    5128, 5535, 7240, 4349, 5010, 5578, 6856, 6859
};

/* decoder_de_convs_1_point_bn1_weight: shape (1, 16), Q-format: u16f14, 16 elements */
static const uint16_t decoder_de_convs_1_point_bn1_weight[16] = {
    8655, 16894, 12394, 16075, 17847, 12477, 9199, 15207,
    11233, 10596, 13382, 11845, 14475, 12316, 6065, 5788
};

/* decoder_de_convs_1_point_bn2_bias: shape (1, 8), Q-format: s32f20, 8 elements */
static const int32_t decoder_de_convs_1_point_bn2_bias[8] = {
    119908, -731066, -1056939, -90666, 290684, 1204336, -824798, 351889
};

/* decoder_de_convs_1_point_bn2_num_batches_tracked: shape (1, 1), Q-format: s32f20, 1 elements */
static const int32_t decoder_de_convs_1_point_bn2_num_batches_tracked[1] = {
    2147483647
};

/* decoder_de_convs_1_point_bn2_running_mean: shape (1, 8), Q-format: s32f20, 8 elements */
static const int32_t decoder_de_convs_1_point_bn2_running_mean[8] = {
    -274572, 627402, 365953, 1305577, -1198882, -2257409, -1424431, -303207
};

/* decoder_de_convs_1_point_bn2_running_var: shape (1, 8), Q-format: u16f14, 8 elements */
static const uint16_t decoder_de_convs_1_point_bn2_running_var[8] = {
    23446, 15872, 25885, 23501, 15897, 10290, 12393, 19328
};

/* decoder_de_convs_1_point_bn2_weight: shape (1, 8), Q-format: u16f14, 8 elements */
static const uint16_t decoder_de_convs_1_point_bn2_weight[8] = {
    19043, 18020, 19622, 22827, 16962, 16723, 28084, 23199
};

/* decoder_de_convs_1_point_conv1_bias: shape (1, 16), Q-format: s32f20, 16 elements */
static const int32_t decoder_de_convs_1_point_conv1_bias[16] = {
    165284, -106743, 209836, 225309, -278962, 205152, -199231, -48724,
    -189543, 170270, -113793, -86695, -133323, -218937, 34807, -71650
};

/* decoder_de_convs_1_point_conv1_weight: shape (24, 16, 1, 1), Q-format: s16f13, 384 elements */
static const int16_t decoder_de_convs_1_point_conv1_weight[384] = {
    -224, -3804, -2771, 3435, -7216, -6005, -2713, -4289,
    2188, 2764, 3288, -115, -2840, -7994, 1630, 138,
    -1468, 528, -4889, 2977, -1151, -11675, 4112, -6354,
    3248, 1857, 1122, -1489, -3272, -2703, -1083, -250,
    -4967, -3197, -990, 4978, -2211, 1038, 4082, -596,
    1403, 2187, 2721, -524, -3323, 916, -1582, -2429,
    505, 1520, -164, -434, 462, 922, -1584, -203,
    -2206, 1908, 2793, -298, 552, 1704, -1863, -436,
    1053, -2409, -276, 2498, -1374, -11, 412, -2661,
    4431, -388, -755, -24, -2286, -3224, -1434, -1618,
    -3210, -1000, 1, 2536, -368, -251, 731, -593,
    171, 669, -2051, -85, -422, -2853, -849, -2024,
    1370, 2362, 667, 1043, 2494, -5180, -2756, 3031,
    -2015, -5419, -2499, -1123, 2850, -1254, 267, 1096,
    2563, 992, 5781, -3373, 2068, -570, -5640, 1868,
    -2858, -2729, 148, 107, 1282, 2677, -1618, -1126,
    2044, 2035, 1356, 858, -197, 1531, -2918, -359,
    -1812, -1208, 533, 407, 1782, -3902, -1524, -2431,
    1037, 2378, 3030, -1978, 2288, 355, -2865, -817,
    -1072, -2685, 572, 1109, 1840, -774, -1660, -551,
    -2110, 931, 1717, -2012, 3251, 2290, -1053, 6090,
    -3436, -3620, 2950, 2248, 2649, 736, -1344, -1168,
    -2301, 796, 24, -2714, 1886, -2017, -753, -726,
    -1924, -58, 2075, 1951, 2539, 2427, -1072, -1552,
    -4048, -2358, -4540, 131, -3148, 5603, 3211, -2255,
    4590, 5449, -634, 2290, -4404, 2961, 968, 274,
    -1065, -1827, -3495, 3294, -1854, 94, 4649, -2063,
    2301, 1939, 1729, -1663, -945, -1827, 847, 565,
    -1913, -400, -2504, -2678, -1194, 712, 3059, -1253,
    2837, 2288, 4222, -2500, -2161, -2266, -1900, -237,
    -865, 297, 937, 718, 971, 1766, -184, 517,
    -1332, -464, -3029, 2238, 1066, -819, -384, -342,
    821, 1316, -2224, 1389, -2264, -654, -106, -60,
    2390, -1857, -630, -3744, -2061, 1523, -286, 151,
    -755, -2543, -674, -1966, 1169, 226, 120, -99,
    1274, 534, -2202, -428, -2460, -383, 1359, 298,
    -1209, -1318, 2805, 3287, -365, 1735, -1626, 2372,
    463, -288, 1118, 3005, 2237, 2574, 3766, 1210,
    1386, 11848, -386, 5462, 9043, 3614, 689, -1499,
    -1888, 2286, -1670, -538, 2643, -3558, 7418, 5445,
    -566, -3784, 664, 6670, -808, -2297, 1634, 2777,
    -2950, -1772, -2859, 6366, 3819, 1869, 3788, 8957,
    -1771, 541, 1294, 692, 942, -3861, -550, -370,
    -1421, 1051, 334, -683, -605, -1801, -4763, -1952,
    -3425, -737, 2833, -783, 777, -3384, 1413, -3160,
    578, 2386, -1961, 7245, 1601, -4642, -3180, -3346,
    -2179, -785, 2798, 636, 303, -574, 1064, 668,
    -922, -1580, -3343, 4004, 849, 65, -332, -3624
};

/* decoder_de_convs_1_point_conv2_bias: shape (1, 8), Q-format: s32f20, 8 elements */
static const int32_t decoder_de_convs_1_point_conv2_bias[8] = {
    73930, 227723, 228708, 214772, 300296, -341936, 274187, 133268
};

/* decoder_de_convs_1_point_conv2_weight: shape (16, 8, 1, 1), Q-format: s16f13, 128 elements */
static const int16_t decoder_de_convs_1_point_conv2_weight[128] = {
    2653, -303, -2016, -125, -4088, 4578, -1750, -3596,
    -4474, 2543, 2757, 273, -32, 1361, 1503, 706,
    -1689, 611, 137, 2804, 1277, 2397, -1509, 876,
    231, 648, 1011, -3817, -542, 709, 1701, 2086,
    -3137, 2454, -2658, 50, -6189, -2081, -303, -3994,
    5912, 1553, -2279, 861, 2074, -1208, -1742, -1770,
    1781, -1468, 3215, -542, -2495, 3344, 180, -852,
    -1400, 1329, -4946, 1217, -648, -522, 987, -4899,
    828, 2907, -2995, -1373, -115, 2084, 1966, -2219,
    2411, 6231, 1583, 3103, 2534, 112, -2795, -4761,
    3802, 3697, -2017, 1707, -1302, -779, 711, -2007,
    5834, 3814, -764, 4465, 225, 1226, 349, -964,
    1721, 2870, -1677, 4170, -3464, 409, -2258, -2204,
    -1283, -1182, -1223, 1777, -1732, 520, -3308, 1922,
    43, 3061, 831, -1751, 4082, 6861, 5853, 132,
    704, -1245, -2261, -2977, 206, 5122, 3886, 662
};

/* decoder_de_convs_1_tra_att_fc_bias: shape (8, 1), Q-format: s32f20, 8 elements */
static const int32_t decoder_de_convs_1_tra_att_fc_bias[8] = {
    407559, 142574, 288365, -777010, -8857, -21737, 21501, 123561
};

/* decoder_de_convs_1_tra_att_fc_weight: shape (16, 8), Q-format: s16f13, 128 elements */
static const int16_t decoder_de_convs_1_tra_att_fc_weight[128] = {
    4043, -4058, 4018, -2592, 720, -4654, 650, 3231,
    -1520, 7588, -867, 4819, -1509, 4172, -1193, -547,
    -142, -3578, -3999, 1774, -21, 405, 1235, -4004,
    3850, 1620, 5577, 979, 3273, 2367, 1270, 6091,
    627, -4675, 7104, -8983, 1858, -3494, 12159, 5490,
    3340, -1818, -6114, -2688, -4100, -3280, -3724, -5415,
    2118, 6063, -3677, 4106, 3122, -314, 8031, -1195,
    1027, 1293, -4161, 8979, 4083, 4772, 2847, 1000,
    3105, -1818, 1108, -8358, -4115, 9498, -2466, -1893,
    -1338, 7340, -7725, 2927, 1677, 5040, 5241, 4955,
    -1734, 5065, -3910, 4373, 2166, 4625, 7112, 8901,
    -3359, -5298, 1505, -5264, -1251, -2680, 5673, -1951,
    5540, -4991, 5306, -1858, 4886, -3353, -6330, -1962,
    -4771, -941, 3208, 3133, -3148, -5622, -3545, 996,
    -671, 4726, -829, -2409, 4867, 6241, 7857, 3565,
    -1634, -322, -4259, -4940, 4125, 3077, 6778, 6443
};

/* decoder_de_convs_1_tra_att_gru_bias_hh_l0: shape (48, 1), Q-format: s32f18, 48 elements */
static const int32_t decoder_de_convs_1_tra_att_gru_bias_hh_l0[48] = {
    39282, 26683, -23040, 19299, -25104, 118665, 63838, -169370,
    -15883, -44016, -59481, 75194, 59934, -21800, -888, -60600,
    195515, 96827, 42040, -83289, -5610, -103902, -52693, 133273,
    220622, -118613, -4317, 68626, 50820, 102371, 164916, 2490,
    30329, 19574, -57734, -118889, -139897, 66867, 13511, -34386,
    86570, -25384, -134089, 117091, 6545, -405, 41158, -48436
};

/* decoder_de_convs_1_tra_att_gru_bias_ih_l0: shape (48, 1), Q-format: s32f18, 48 elements */
static const int32_t decoder_de_convs_1_tra_att_gru_bias_ih_l0[48] = {
    11307, -42643, -7006, -16321, -8702, 39486, -6808, -71768,
    -90553, -40326, -30877, -19000, -44457, -4230, -28299, 4557,
    208800, 115518, 29891, -133046, 5347, -109170, -16780, 217617,
    136317, -178728, -71497, 35100, 112440, 133312, 212506, -35253,
    -79145, 29523, 29056, -26, -160613, 109209, -36288, 103030,
    56224, -30653, 19220, 65573, -51104, -40359, -94456, 71801
};

/* decoder_de_convs_1_tra_att_gru_weight_hh_l0: shape (16, 48), Q-format: s16f13, 768 elements */
static const int16_t decoder_de_convs_1_tra_att_gru_weight_hh_l0[768] = {
    -1850, 876, -4709, -5525, 6911, 970, 2030, -5102,
    4654, -6244, 3674, -4496, -209, -1486, 880, -2424,
    4682, -2896, -2570, 1269, -8047, 7733, 4884, 11822,
    10994, -8024, -9830, -676, 10547, -693, 571, -9949,
    3328, -626, -1778, 5587, -1529, 4916, -4965, 123,
    7605, -1354, -2284, -2202, 13808, -3422, -736, -3095,
    1238, -3009, -810, -3395, -4934, -3721, -1041, -3497,
    -3983, 8280, 519, 7366, -1004, 50, -773, 4216,
    1662, 6658, -5205, -747, 8161, -4610, -8152, 593,
    -2148, 7292, -6056, 2594, -4785, 7755, 3640, 4977,
    -6281, 3619, 1725, -7620, 518, 3240, 7284, 2641,
    1967, 1473, 123, -776, -3123, 539, 3677, 686,
    -3213, -1357, -578, -725, -1188, -1795, -2187, 2177,
    -2733, 3440, 1877, 1927, -1700, 508, 39, 2317,
    -2578, -3486, 4042, 4163, -1005, -4633, 522, 2622,
    2285, -3587, 5553, -1661, 7428, -7011, -2394, 88,
    -434, 1129, 4143, 288, 3018, -6896, -1863, 2142,
    -3582, 3094, 3428, 54, -2866, -1984, 3298, 646,
    -1658, 841, 4065, 2414, 2745, 2243, 3569, 6690,
    4565, 1538, -1239, 4882, -1289, -6328, 4125, 2433,
    -88, 5035, 539, -1937, -4631, -3850, -1162, 1792,
    -4963, 1661, -10177, -3615, -3752, -2200, 5643, -629,
    2308, 35, 815, 725, 1314, -3604, -1722, -278,
    829, 2257, -1017, 4346, -1627, 3627, -866, -2479,
    -3391, -873, 2705, -1001, -5239, -2336, 3423, 3370,
    4501, 939, 683, -2219, 694, -2783, -5043, -1206,
    -1371, -3774, 7369, -4606, -13561, 2093, 3295, 5073,
    3118, 6381, 524, -1895, -8638, -3379, 570, 2730,
    2883, -1040, -739, 1736, -2626, -3113, -1766, -139,
    -3222, -2026, -2219, 4294, 1190, 5778, -1333, 1560,
    4039, 1275, -4048, 889, 77, -1961, -4597, -3819,
    -6986, -6503, -184, 2208, 235, 6262, 849, 900,
    304, 2657, -4024, 6445, 8926, 1812, 4770, 1431,
    5059, 5665, -2157, 905, 1277, 8314, -2186, 6308,
    -2977, -1888, 685, -428, -2136, 3868, 6934, -1596,
    -1526, 3524, -1814, 3684, 568, -158, 210, -2141,
    7581, -6610, 1436, -1415, -6180, -1511, -4650, -10041,
    4907, 989, -1790, 5469, -2634, 39, 4797, 14979,
    21, 7, 6446, -1394, 1658, -2873, -8809, -3091,
    5484, 9860, -2539, 1510, -1140, 153, -10084, -7168,
    -2113, 1042, -7119, -2388, 889, 2186, -1601, -1904,
    2585, -645, 975, -407, -2393, -4264, 4571, 612,
    -3236, -5222, -5531, -2035, 6370, -999, -7995, -6193,
    -469, -2673, 4215, 3331, -4797, 4376, 4457, 6443,
    3170, 1711, -4984, 3083, 5843, 744, -2522, -781,
    -547, -2495, -284, -1224, 6641, -4914, 6844, -6086,
    -1061, 4849, 322, -2572, -794, -2511, 5174, 930,
    -3140, 4084, -1583, -2374, 221, -3105, 4033, 1327,
    7148, 2389, 5984, -3825, -7837, 1598, 2802, 2733,
    4348, -2228, -3787, -3573, 1972, 6585, -4545, -4290,
    2074, -221, 7577, -4200, -3123, 997, -359, 9266,
    -2252, -873, 3091, -583, -14191, 1315, 8959, 5868,
    2677, -399, -2920, 2945, -1290, 2109, -2039, 2563,
    4228, 201, -1084, 739, 2637, 2626, -714, 2152,
    2390, -1633, -10469, -2169, -874, -3446, -4965, 866,
    -2593, 1410, 6108, 5064, 131, -648, 4253, 5246,
    -1034, -2345, -7092, 345, 5073, 3318, -16584, -1115,
    -5251, -8527, -4571, -2472, 4858, -2167, -8172, -11462,
    -1916, 1786, 6161, -2022, 5020, -2182, -641, 2870,
    -1776, -706, 4915, -1979, -790, -6692, 2103, -1179,
    3608, -6013, -4502, -5441, -7721, 5523, -2719, -60,
    3524, 5094, 909, 1574, -4348, -8321, -4780, -2766,
    -241, -1911, 11413, -7265, 8304, 6115, -11988, -1315,
    -5263, -48, 5579, 469, -3449, 1667, -2783, -4441,
    5060, 5737, 4861, -1307, 461, 7248, -4815, -345,
    1218, -4149, -1276, -1071, 2989, 144, -603, -6215,
    4344, -1355, 3749, -2139, -3730, -3508, 1771, -2891,
    940, -1210, -4791, -3756, 5828, 14236, -4943, -3034,
    5371, 376, 3348, -272, -2145, 3088, -2024, -2016,
    1581, 6671, 2865, 8848, -10851, 3560, -792, 7140,
    -72, -2030, -7996, -2436, 43, 991, -666, -2772,
    -513, -3897, -7392, 4430, 2854, -5497, 1491, 8613,
    6981, 934, -744, 4383, 3221, -4807, 4448, 4827,
    8369, -435, -2572, 124, -6153, 640, 2365, -9433,
    6414, -993, 5443, 5563, -8098, 14121, -4209, 6708,
    5734, -8026, -507, -1951, -1284, -8206, -108, -2601,
    3345, 2659, 531, -382, -2802, -4422, -4006, -2589,
    11640, -3283, 6882, -179, 4547, 831, 2940, -4211,
    7765, -306, 1570, -1836, -3544, -2713, 5753, 1326,
    -3863, -3440, -2540, -11352, -5311, 684, -1873, 4379,
    4139, 2741, 290, 353, 1430, 6038, -826, -10742,
    -4588, 3408, -235, -620, -9646, 961, 338, -3668,
    -1416, 158, 1411, 4355, -747, -556, -1640, -1793,
    -5201, -8181, -8275, -2251, -1707, 3227, 1515, 1268,
    11174, -11919, 5993, -6235, 2439, -4814, 16, -6711,
    -6313, -4052, 3373, -5529, -939, 9936, 5098, 9523,
    601, 5283, -18099, -6526, -4066, -3225, -7008, -8364,
    -5965, -10674, -13936, 6070, -6920, 2232, 6437, 8316,
    -1498, 4425, 7666, -11012, 445, -1760, 6682, -2240,
    -4358, -2240, 3845, 1574, -3598, -2974, 6249, 2704,
    4398, -5226, 1686, -778, 9511, 2365, 3765, 1220,
    5618, 3649, 1381, -4469, 7577, 1155, 3664, -2290,
    4145, 2031, -2245, -5200, -1361, 1902, -4450, -6416,
    -5171, 2999, -3304, -2374, -4271, -6473, -2092, -13007,
    -2534, 956, -338, -3476, -3392, 65, -8907, -3357,
    1301, -3662, -1990, -2942, -1353, 1252, 3100, -2367
};

/* decoder_de_convs_1_tra_att_gru_weight_ih_l0: shape (8, 48), Q-format: s16f13, 384 elements */
static const int16_t decoder_de_convs_1_tra_att_gru_weight_ih_l0[384] = {
    -679, -456, -280, 7132, -780, -63, 2285, 17,
    -3640, 202, -5373, 3056, 4356, -3648, 387, 2804,
    -3193, -1763, -1999, -1313, -1068, -5746, 4491, -1407,
    -856, -3836, 1293, 1449, -625, 3160, 1720, 245,
    -841, -3054, 750, 1569, 401, -788, -3676, 1016,
    -1340, -284, 17, -104, -1534, 1323, -2402, -1472,
    2562, -1831, -846, -1086, 6576, -403, -3070, 1047,
    -2263, -4126, 5972, 2318, -6606, 1504, 618, 3052,
    2941, -64, 1266, -941, 3189, 1174, -4920, -353,
    -2595, 2393, -63, 1722, 2116, -45, 5006, 316,
    876, 2325, 605, 1911, -838, 1994, -923, -2867,
    1463, 1493, -1951, -2520, -1387, -682, 838, -2759,
    356, 1362, 3711, -3056, 4683, -672, -2641, -140,
    2125, -5233, -4588, -4284, 516, 2374, 1622, 1393,
    -864, -1034, 1654, 414, -3265, -12, -717, 4544,
    465, -1387, 648, -2826, 2025, -623, -389, 49,
    2719, -529, -1118, -2719, 3726, -21, -538, -1053,
    -2442, -4726, -1235, 2182, 378, 4314, -1294, -1124,
    -3512, -834, -7387, -2682, 3362, -3053, -893, -8137,
    -7438, -4563, 1026, 182, -1290, -503, 3476, 4568,
    2137, -1898, -709, -1390, 1620, 655, -4547, 1488,
    -3609, -2764, -387, 553, 1512, -1158, -2100, -589,
    -3806, 4797, 337, -1491, -1500, 5977, 1932, 4579,
    -808, 1851, -70, 1513, -3234, -1475, 3511, -1547,
    1794, 2616, 3552, 42, 460, 3325, 2619, 3777,
    5972, 3435, -1912, -2724, 2647, -519, 952, 1342,
    712, 6818, 496, -4289, 1504, -1737, 401, 8037,
    539, -1628, -5485, -3333, 5471, 979, 3315, 715,
    1312, -2650, -612, -1711, 131, 1422, -1042, 1865,
    404, 510, -926, 2723, -1469, -1160, -3426, -84,
    5008, 1284, -4372, 590, 1223, -4367, -621, 2350,
    -1669, 1963, 2361, 5302, 1135, 2742, 220, -1754,
    7632, 2075, -4213, 6372, -3793, -1967, -4403, -4058,
    2262, -3161, 6288, -1703, -2044, -5777, 3325, 2801,
    -625, 486, 213, -818, 208, 1397, -2087, -2744,
    -824, -2191, -1316, -2918, 5736, 873, 1799, -721,
    8363, 1515, -2329, -8081, -1030, -2989, 16955, 6018,
    3242, 5110, -1007, -425, 247, -1485, -2547, -2477,
    2970, -21, -1175, 1316, 35, 2585, -8697, 1343,
    -215, -23121, 1956, 1762, -385, -1684, -622, -2040,
    -284, 729, -1648, -778, 734, -2851, 153, -779,
    -2067, 4063, 1821, -2578, 1459, -915, 2609, 2301,
    3558, -2179, 5218, -7985, 3622, 2147, -2628, 1737,
    3447, 3937, 1468, -1601, -7150, -3203, 1775, -99,
    -886, 303, 434, 1426, -3340, 1351, -1303, -3092,
    -773, 2142, -917, 705, -10178, -2254, 4404, 2549,
    1913, 5266, -3175, 989, -907, -1999, 2258, -220,
    976, -675, 4698, -608, 209, -1731, 1307, 1775
};

/* decoder_de_convs_2_depth_act_weight: shape (1, 1), Q-format: s16f14, 1 elements */
static const int16_t decoder_de_convs_2_depth_act_weight[1] = {
    6916
};

/* decoder_de_convs_2_depth_bn_bias: shape (16, 1), Q-format: s32f20, 16 elements */
static const int32_t decoder_de_convs_2_depth_bn_bias[16] = {
    1324658, 1333216, -901848, 983142, 1767167, 977942, -581468, -801516,
    300326, -402491, 1466553, -303881, -1123773, -1487202, -1531005, 1584741
};

/* decoder_de_convs_2_depth_bn_num_batches_tracked: shape (1, 1), Q-format: s32f20, 1 elements */
static const int32_t decoder_de_convs_2_depth_bn_num_batches_tracked[1] = {
    2147483647
};

/* decoder_de_convs_2_depth_bn_running_mean: shape (16, 1), Q-format: s32f20, 16 elements */
static const int32_t decoder_de_convs_2_depth_bn_running_mean[16] = {
    -209148, -1528301, 495575, -1116271, -1127476, 377526, 191996, -168690,
    259449, 677228, 779022, 71899, 323619, -305504, -547578, 273776
};

/* decoder_de_convs_2_depth_bn_running_var: shape (1, 16), Q-format: u16f12, 16 elements */
static const uint16_t decoder_de_convs_2_depth_bn_running_var[16] = {
    5891, 3996, 5140, 4189, 3772, 6844, 4202, 10488,
    2714, 3297, 4160, 14001, 7059, 9949, 3954, 6053
};

/* decoder_de_convs_2_depth_bn_weight: shape (16, 1), Q-format: u16f14, 16 elements */
static const uint16_t decoder_de_convs_2_depth_bn_weight[16] = {
    10941, 15700, 14715, 17291, 11772, 14573, 12424, 14259,
    11163, 18773, 13420, 12941, 14842, 14861, 14282, 11873
};

/* decoder_de_convs_2_depth_conv_bias: shape (1, 16), Q-format: s32f20, 16 elements */
static const int32_t decoder_de_convs_2_depth_conv_bias[16] = {
    168038, -280615, -151914, -181468, -182724, 142872, -306192, -44132,
    -313859, -148237, 311893, 211353, 68886, -209004, 232598, 202210
};

/* decoder_de_convs_2_depth_conv_weight: shape (16, 1, 3, 3), Q-format: s16f12, 144 elements */
static const int16_t decoder_de_convs_2_depth_conv_weight[144] = {
    -2637, -2529, 1093, -429, -1032, 777, -230, -698,
    973, -3198, -1851, -560, -1460, -1040, -533, -970,
    -212, 74, 3213, -492, 1200, 1041, -1146, 525,
    1095, -1110, 797, -1872, 1406, -2318, -1723, -207,
    -436, -1388, -696, -655, -3131, 1316, -2005, -1976,
    244, -1001, -1021, 602, -334, 4040, -1113, 1346,
    940, -367, 686, 522, -90, 551, -335, 4120,
    204, -272, 1049, 925, -279, 838, 500, -497,
    2910, -38, -1432, -384, -713, -872, -217, -767,
    334, 870, -1304, 663, 2402, -1290, 513, 2442,
    -1035, 5711, -415, -540, 848, -38, -4, 1733,
    -559, 263, 745, 3643, -862, 220, 2331, 134,
    -255, 1754, -661, -2697, -617, -1706, 499, 1761,
    806, -296, 1014, 309, 702, 3120, -509, -913,
    1808, -710, -641, 2332, -705, 488, 1147, -3601,
    308, 740, -1051, -267, 804, -1061, -876, -726,
    -4037, -172, 196, -679, 105, 408, -1014, 2708,
    1492, -2411, 889, 953, -1131, 116, 283, -274
};

/* decoder_de_convs_2_point_act_weight: shape (1, 1), Q-format: s16f14, 1 elements */
static const int16_t decoder_de_convs_2_point_act_weight[1] = {
    681
};

/* decoder_de_convs_2_point_bn1_bias: shape (1, 16), Q-format: s32f20, 16 elements */
static const int32_t decoder_de_convs_2_point_bn1_bias[16] = {
    -117524, 410082, 224842, 446366, 446028, -302822, -177627, -207928,
    -50100, 347589, -195047, 543088, -216096, -456286, 45902, -252603
};

/* decoder_de_convs_2_point_bn1_num_batches_tracked: shape (1, 1), Q-format: s32f20, 1 elements */
static const int32_t decoder_de_convs_2_point_bn1_num_batches_tracked[1] = {
    2147483647
};

/* decoder_de_convs_2_point_bn1_running_mean: shape (1, 16), Q-format: s32f20, 16 elements */
static const int32_t decoder_de_convs_2_point_bn1_running_mean[16] = {
    -184290, 1527966, 1397791, -406583, -564891, -340418, -1972517, -795425,
    953130, 487465, -492560, 812895, -3156282, 1083183, -386232, -460739
};

/* decoder_de_convs_2_point_bn1_running_var: shape (1, 16), Q-format: u16f13, 16 elements */
static const uint16_t decoder_de_convs_2_point_bn1_running_var[16] = {
    7655, 6489, 6410, 4155, 4579, 4995, 9683, 4733,
    5394, 5500, 5554, 4180, 5466, 7511, 7167, 6887
};

/* decoder_de_convs_2_point_bn1_weight: shape (1, 16), Q-format: u16f14, 16 elements */
static const uint16_t decoder_de_convs_2_point_bn1_weight[16] = {
    16403, 10781, 16851, 10229, 12422, 11416, 16907, 16881,
    30514, 14444, 14969, 9731, 12747, 15124, 20029, 14639
};

/* decoder_de_convs_2_point_bn2_bias: shape (1, 8), Q-format: s32f20, 8 elements */
static const int32_t decoder_de_convs_2_point_bn2_bias[8] = {
    -352859, -633606, -156137, 747143, -497232, -1133507, 1124775, -1310123
};

/* decoder_de_convs_2_point_bn2_num_batches_tracked: shape (1, 1), Q-format: s32f20, 1 elements */
static const int32_t decoder_de_convs_2_point_bn2_num_batches_tracked[1] = {
    2147483647
};

/* decoder_de_convs_2_point_bn2_running_mean: shape (1, 8), Q-format: s32f20, 8 elements */
static const int32_t decoder_de_convs_2_point_bn2_running_mean[8] = {
    266972, -1825039, -559085, -902370, 843616, -125486, -496089, 2453597
};

/* decoder_de_convs_2_point_bn2_running_var: shape (1, 8), Q-format: u16f14, 8 elements */
static const uint16_t decoder_de_convs_2_point_bn2_running_var[8] = {
    13596, 11196, 22820, 17649, 19832, 29844, 20393, 17345
};

/* decoder_de_convs_2_point_bn2_weight: shape (1, 8), Q-format: u16f14, 8 elements */
static const uint16_t decoder_de_convs_2_point_bn2_weight[8] = {
    26801, 21923, 24790, 23047, 18938, 19930, 15762, 14048
};

/* decoder_de_convs_2_point_conv1_bias: shape (1, 16), Q-format: s32f20, 16 elements */
static const int32_t decoder_de_convs_2_point_conv1_bias[16] = {
    -228612, -165271, -186896, 22216, -158398, -215645, 216410, -177974,
    -20697, 136919, 66885, -214536, -196242, 16701, -107932, -153667
};

/* decoder_de_convs_2_point_conv1_weight: shape (24, 16, 1, 1), Q-format: s16f13, 384 elements */
static const int16_t decoder_de_convs_2_point_conv1_weight[384] = {
    -1305, -133, 2655, -2643, -2438, 323, -1135, 263,
    -928, -2117, 862, 499, -1340, 838, 2380, -388,
    -1113, 4590, -2212, -3457, -3518, -4849, 1485, 91,
    -1327, -981, -3057, -1139, -3285, -176, 1675, 1143,
    2427, -1029, 1551, -4837, -103, 1494, -1990, -4845,
    -4295, -260, -3265, 2445, -2436, 3836, -3030, -3145,
    -1160, -147, 1181, -159, 313, 2016, -1941, 438,
    -631, -2547, 2523, -1241, -1997, -95, 815, -1300,
    -2157, 667, 1952, -512, 72, 2321, -7697, -1578,
    -808, 974, 3332, 1564, -3638, 1246, -327, -1415,
    4767, 239, 889, -310, 614, -1805, 453, 181,
    -3896, 766, 130, 2537, 3997, -3216, 3469, 4656,
    -3905, -4152, 3382, 3083, 3919, 2211, 2181, 5244,
    721, 3742, 966, -3939, 5033, 2411, 2262, -593,
    4190, -2638, 7157, 1300, 1922, 8034, 3997, -3808,
    4073, 176, -968, 2092, 3021, 3724, 1662, 1899,
    2843, -1616, -712, 4154, 503, -1188, -1918, 5804,
    -1431, -1943, 8441, -4053, 1972, -266, 590, 3051,
    314, 820, -29, -1682, -2247, -2201, 72, 427,
    -2344, -4622, -1870, 4119, 1831, -298, 5580, 1904,
    3021, 1424, 1719, 86, 406, -758, -330, -3407,
    -2355, -2715, -3936, 527, -397, 1113, -151, -2371,
    -2511, -1706, -361, -785, 690, -1227, -592, -1730,
    -641, 792, 2187, 384, 107, 2099, 736, -2559,
    -2496, -1033, 384, -6092, -9572, -3715, 2162, -2790,
    -1755, -4977, -895, 1094, -571, -2167, -3357, 435,
    -2958, 2171, -2061, -4989, 3507, -1511, -4080, 684,
    711, 3167, -719, 4109, -3929, -2608, -166, -4619,
    -148, 3033, -1737, -1082, -3683, 516, 2286, -3789,
    -5126, -1064, -1816, 546, 1579, 2115, -374, 2871,
    -585, 2584, -2139, -659, 617, -5118, -1657, 307,
    -780, 1799, -3657, -1452, 1286, -128, -1524, 1763,
    806, 3068, -247, -2711, 1893, -1455, -1339, -1204,
    -1778, -1141, 340, -2386, 1367, -1308, -2903, -1968,
    947, 1816, -40, -997, 1846, -979, 1497, -717,
    -988, -1655, -251, -385, -1097, 1713, -2327, -1667,
    4124, -586, -6576, 4181, 3494, 4058, -584, 1642,
    -1307, 3150, 1087, 1216, 5065, 2061, 1411, -1791,
    -2271, -6212, 4336, 826, -776, -845, 80, -2438,
    58, 1429, 4505, 1422, -744, -2793, -5466, 3380,
    3710, -436, -357, 3604, 912, 302, 3434, 2501,
    5217, -1503, 544, 195, 2505, 1739, 1250, 1044,
    1194, -264, 1901, -773, -2320, 1486, 1541, -509,
    -346, -39, 2481, 4034, -1552, -8, 1959, -1248,
    -2924, 4512, -520, 275, 1373, 311, -3478, -2153,
    3453, -1377, -1154, 341, -3097, -1804, -2371, -2793,
    1956, -2195, 1536, 1077, -395, -2779, 35, 698,
    50, 1120, -3376, -178, 946, 5114, 217, 2982
};

/* decoder_de_convs_2_point_conv2_bias: shape (1, 8), Q-format: s32f20, 8 elements */
static const int32_t decoder_de_convs_2_point_conv2_bias[8] = {
    253628, -255880, 4077, -431518, -254842, -102168, 261763, 40679
};

/* decoder_de_convs_2_point_conv2_weight: shape (16, 8, 1, 1), Q-format: s16f13, 128 elements */
static const int16_t decoder_de_convs_2_point_conv2_weight[128] = {
    -2030, -3073, -728, -4137, -1575, 65, -3407, 357,
    3890, -4334, -1250, -2667, 1242, 1480, 3913, -1646,
    -391, -1013, -304, -3972, -309, -773, -1616, 4830,
    -5530, -418, -1483, -3574, -834, 4855, -2076, 2426,
    -1820, 3475, -583, 3796, 2741, -5966, -2723, 7166,
    -8, -6401, -1526, 884, -1832, 4928, -859, 1821,
    861, -2720, 5091, 1844, -2369, 438, -1558, -1433,
    2940, 543, -1592, -1806, -4918, 1192, 368, -1676,
    1924, 1830, -824, -2294, 645, 2510, -1810, -782,
    -4145, -1267, -546, -5526, -4213, -1909, -631, 24,
    1859, -1808, -5153, -1610, 2167, -1688, -2060, 1413,
    668, 2123, 751, -379, -5256, 139, 621, -2234,
    1027, 1332, -3368, -398, 4172, 2158, -744, -2863,
    -2238, -1466, -664, -2795, 330, -595, -2821, -4711,
    -1904, -2978, -365, -2061, -4825, -2481, -4704, 661,
    1429, -1872, 5184, 52, 386, -589, -735, -227
};

/* decoder_de_convs_2_tra_att_fc_bias: shape (8, 1), Q-format: s32f20, 8 elements */
static const int32_t decoder_de_convs_2_tra_att_fc_bias[8] = {
    424161, -260962, -476730, 526233, -38293, 23246, 146947, 349889
};

/* decoder_de_convs_2_tra_att_fc_weight: shape (16, 8), Q-format: s16f13, 128 elements */
static const int16_t decoder_de_convs_2_tra_att_fc_weight[128] = {
    1362, 1602, 6427, -4766, 2911, -626, 4389, 4024,
    756, 500, -1929, -1362, -4111, -4663, 5341, -850,
    -567, 4132, -1472, -3747, 2666, -2053, -3465, 2685,
    -3407, 2514, -926, 1942, -4844, 7592, 2093, 4309,
    634, -5035, -13052, 3106, -485, 2256, 48, 357,
    -887, -10779, -7068, 5491, -987, -1361, -1493, -2129,
    3473, 3070, 895, -77, 3168, 8243, 3797, -3738,
    412, -3416, -5418, 6394, 5938, -457, 4570, 4077,
    7347, -2701, -2054, 2101, 2332, 1652, 9458, 5889,
    1084, 7376, 6358, -1237, 679, 1218, 148, -1266,
    -1679, -2056, -2361, 3657, -851, 1969, 529, 515,
    1255, 2650, 3703, -4123, 9605, 3741, -1024, -264,
    -1306, -13954, 5047, 1414, 1886, 595, 1058, 2799,
    -3182, -443, -120, -1012, 1800, -5217, 3885, 7680,
    -5064, 977, 4059, 385, 3779, 2620, 3940, 637,
    -3212, -1302, 1273, 5295, -5179, -2389, -835, 5888
};

/* decoder_de_convs_2_tra_att_gru_bias_hh_l0: shape (48, 1), Q-format: s32f18, 48 elements */
static const int32_t decoder_de_convs_2_tra_att_gru_bias_hh_l0[48] = {
    88068, 82289, -112276, 451, -30702, 31242, -6939, 107251,
    -34120, 90373, 47947, 65789, 77799, 26085, 33781, 59842,
    20737, 137942, -8721, -18812, -7516, 195941, 84391, -44779,
    -63932, 264673, 254541, -275841, -68453, 4710, 136734, -26538,
    -75132, -37128, 76216, -98506, 83680, 69529, 12515, -58714,
    -151218, -16032, 5587, -40777, -37561, -221997, 80314, -78870
};

/* decoder_de_convs_2_tra_att_gru_bias_ih_l0: shape (48, 1), Q-format: s32f18, 48 elements */
static const int32_t decoder_de_convs_2_tra_att_gru_bias_ih_l0[48] = {
    19154, 50159, -46612, 75679, 73529, -13135, 65250, 66844,
    73723, 74731, 43707, 12807, 71671, -40350, -38513, 30839,
    101420, 213508, 61154, 39208, 8570, 196943, 173558, -56305,
    18848, 225452, 246572, -380261, -47591, 26400, 136126, -108810,
    -132287, -91901, 79095, 26373, -4278, 201293, -251050, -99025,
    -114771, -85902, 77551, -31566, -134702, -59573, -33032, -128197
};

/* decoder_de_convs_2_tra_att_gru_weight_hh_l0: shape (16, 48), Q-format: s16f13, 768 elements */
static const int16_t decoder_de_convs_2_tra_att_gru_weight_hh_l0[768] = {
    -3148, 4985, 1761, -2009, 683, -4434, -1874, -2827,
    649, 693, -8829, 151, 61, 3490, 965, 1117,
    1741, 208, -5387, -1277, -813, -4986, 6219, -2169,
    1356, 4175, -7118, 1557, -3200, -5600, -5135, -4989,
    221, -1492, 3840, 5776, 558, 992, 1549, 1338,
    -2103, 1311, 4389, 5011, 1298, 2338, -4860, 3238,
    2339, 1069, -1657, 2397, 6, -653, 6066, 3722,
    5001, 4932, -1119, -530, 3303, 7459, -2357, 2177,
    2230, 3484, 579, -3315, -7064, -480, 3847, -6967,
    540, -2699, -1956, 13153, -11218, -13096, 7227, -8701,
    8, -2460, -828, -319, -1967, 640, 4642, -4151,
    3257, 2445, -695, -2728, -9149, -3359, -5176, 4500,
    2682, -4214, -4619, 3325, 1658, 7293, -903, 6409,
    287, 3677, 3450, -3972, -2514, 1423, 1464, 4636,
    -3204, 2051, 1471, -1529, -5836, -325, -161, -3996,
    1145, -6850, -52, 5840, -6810, 9549, 5182, 215,
    326, 2652, -2577, -5117, -6524, -2781, -3088, -439,
    2032, 10592, 7650, 834, -4690, -3871, 5988, -7191,
    -3763, -5146, -5254, -4271, -3210, -2819, -891, -1867,
    -8, -4413, -405, 349, -3418, 2192, 802, 1853,
    -1245, 8272, -4183, 6280, -4667, -6637, -2511, -2880,
    613, 2809, -8447, 7845, -5301, -1981, 2803, -4395,
    -739, 2304, 2965, 3281, -2513, -13, 4804, 2719,
    3712, -2160, 3396, -2743, -1533, 1582, 1294, -940,
    6934, -412, 5363, -3198, -2578, 4264, -1998, -8778,
    -6617, 6553, 8464, -586, -1261, -4946, 7073, -1921,
    4503, -253, -4719, 11507, 662, 26, 706, 6668,
    -3067, 6207, -2146, 1877, 1102, 2645, 13555, 6680,
    -336, 882, 4425, 466, -1173, 5379, -938, 7082,
    572, -8209, 4019, 697, 4251, -4181, 3883, -2211,
    8589, 1563, -4303, 4730, 4411, 7944, -345, 3817,
    800, -9166, 641, -3795, 8034, -2401, 1566, 4485,
    -3492, 2419, 5115, -7616, -6711, 2954, -1975, 3290,
    6527, 868, 6929, -2487, -3386, 650, 4596, -8081,
    3600, 3494, -2691, -8827, 330, 5131, -2087, 759,
    -130, -14950, 3164, -1488, -6730, -1482, 993, -5027,
    1756, -5950, 2562, 1672, -1540, 772, -2831, -108,
    -1567, -183, 4403, 6145, -1038, 1286, 1870, -1923,
    -592, -4894, -1450, 1974, 1331, -5912, -1091, -3248,
    -1537, -3659, -3675, 11110, -20, -7399, -1257, -2086,
    -3137, 5532, 1193, 2324, -1333, -788, 4966, 1937,
    6663, -2990, 379, 1428, -4395, 1684, -3503, 4340,
    -7395, 3087, 4813, 736, 406, -2864, 3324, -2,
    9078, -3028, -4126, -3305, 514, -472, 2961, 1444,
    -1135, 1936, -2621, 7231, -6182, -7216, 2649, 958,
    230, -9026, -4630, 7109, 495, 2537, -7196, -2004,
    6601, -3871, -3739, 4291, 3675, -532, -3062, -3365,
    -3472, -6417, 3451, 6543, 2407, 1343, -3693, 3872,
    -366, -8819, 213, -5825, -4398, 2840, 1499, -252,
    5564, -528, 2789, 8355, -4270, -1702, 4216, 3220,
    -2365, -6124, -789, -5060, -3203, -3792, -596, -9353,
    -12249, -4064, -5618, 8954, 6308, 3832, 1973, -1255,
    -1554, -5441, -1196, 1954, -4666, -511, 6018, -939,
    329, 3879, -1640, 1471, -976, -1649, 5709, -190,
    -3417, 3072, -379, 2823, -8128, 1239, 583, 4549,
    590, 3198, -3972, -5104, 0, -628, 2290, 4783,
    1097, 1170, -939, 2326, -3179, -11224, -927, 9509,
    -443, -1372, -981, 2003, 4014, -5391, 1151, -2821,
    -2296, 3655, 6423, 5032, -1956, -627, -774, 3398,
    940, 11534, -2127, 137, 6811, 6864, -393, -312,
    -376, -3143, -818, -2425, -6523, -622, -6203, -4367,
    -7894, -8629, -1074, -15825, -7461, 2562, 2080, -5376,
    -716, 2198, 3361, -599, -2220, -4370, 6771, 1712,
    7664, -4758, -580, -1808, 3130, 445, 6857, -2266,
    -3830, -1250, -2351, -3207, 1709, -990, 2618, -245,
    -6049, -3269, 5407, -389, 3787, -6863, 6941, 3068,
    -5470, 1088, 8841, -1482, 5631, 1089, -7107, 3553,
    -5453, 11598, -4353, 4284, 3327, -6368, -148, -5246,
    3015, -9502, 1798, -4768, 11968, 4744, 5637, -2510,
    912, -14229, -2446, -1280, 4850, 1124, 2451, 5381,
    5843, -156, 3146, -2053, -2566, 981, 179, -6397,
    1486, 5973, -806, -4445, 2997, 1791, -3567, -2619,
    -945, 884, -4139, -519, -3829, -11911, 3995, -4597,
    -2639, -20679, 5801, -1151, 1683, 1150, -8297, 48,
    983, -3330, -6520, 5984, 10455, -568, -769, -4766,
    -8845, 2046, -5990, 4121, 5527, 2652, -2845, 4455,
    -1285, -5461, -5553, 974, 4397, 5128, 3473, -1364,
    2343, -14160, -6639, -5103, -601, -1413, -7276, 1215,
    -1573, 5532, -429, -1083, 6107, -5126, -757, -830,
    -1384, 1222, -2506, 261, -1330, 2215, 3189, 840,
    2072, 7462, 713, -2617, -2005, 1023, 8644, -687,
    9498, 636, 1387, -3432, 712, -598, 5507, -1622,
    -747, -5423, 12, 4050, 9110, -5771, -2274, 1581,
    -3528, 3843, -5487, 2885, 5111, 330, 2728, 1829,
    -4549, -3974, -1041, -6485, -1282, -2093, -2980, -2491,
    -1792, -6676, 887, -3458, -5460, 1141, 189, 4580,
    4204, -8105, 62, 1321, 2036, -5808, -59, 6621,
    2172, -204, -11463, 8008, -1738, 9318, -1037, 633,
    7061, -154, 1014, 4079, 3225, 1879, -3457, 5894,
    5629, -1043, 1353, 1481, 983, 4305, -1840, -66,
    -7820, 6009, 325, 253, 2008, -4723, -3383, -2780,
    1079, 1869, -324, -2309, -3404, 6544, -5323, -2910,
    -1821, 9664, 1473, -1300, 908, 445, 1777, -5053,
    606, -9340, -1668, 151, -2602, -8822, -1463, -2183,
    1210, -3457, -7553, 3868, 2850, -3329, -1065, -994,
    -1591, 2662, -8018, 287, 5449, 720, -7211, 5569
};

/* decoder_de_convs_2_tra_att_gru_weight_ih_l0: shape (8, 48), Q-format: s16f13, 384 elements */
static const int16_t decoder_de_convs_2_tra_att_gru_weight_ih_l0[384] = {
    4029, -3923, -2059, 511, -192, 4530, 1775, 2086,
    -193, 2552, 8061, 1695, -1063, 1646, 1399, 914,
    1928, 2739, 2712, -5076, 983, 561, -2137, -439,
    3840, 2685, -2632, 2757, 1119, 960, -2402, 322,
    2155, 1614, -514, 1273, 1133, 376, 4581, 842,
    689, -2394, -442, 334, 340, 1072, -4915, -657,
    3533, -501, 11956, 6307, 1185, -950, 2114, -5520,
    2676, -1291, 1856, -3024, -6517, -10552, -5190, -7151,
    -1526, -7506, -3821, -5359, -3815, -10261, 1608, -3443,
    2312, -4434, -990, 1655, -4414, 3132, -2854, 1161,
    -215, 2022, -4112, -9069, 1996, -815, 4, 1531,
    1060, -1355, -296, 2736, -877, 1882, -2564, -1259,
    -7548, -408, 2546, 5117, -3385, -782, -4847, -3613,
    -15, -190, -3783, 2103, 2432, -3759, -3930, -5120,
    1108, -3636, 380, 2757, -6, -2977, -796, 4343,
    720, 1811, 2349, -462, -527, -5680, 6204, -1321,
    -23, -427, -2628, -3390, -4754, -1494, -467, -2040,
    -488, 4863, 516, 1927, 1279, 1043, 1696, -232,
    -2727, 527, -1526, -7364, -1562, -2590, -2295, -2903,
    -2018, -4069, 1587, 2034, -3898, 1714, -67, -2907,
    1792, -5178, -5896, -1340, -5334, 163, 1161, -1641,
    -4498, 5378, -1866, -2778, -3371, -4036, 5754, -2373,
    -1473, -3285, 2081, 2894, -789, 2801, -3284, 1663,
    1043, -559, 1522, -2651, 3880, -1784, 1555, 2107,
    -6198, 1023, 8442, 38, 1225, 687, -4533, -4949,
    6682, 4440, 151, -3550, -1290, -2546, -8432, -4262,
    -1043, -5428, 4380, -266, -1091, 157, -2133, -3687,
    -2631, -222, 4379, -6410, -150, 1176, 143, -2127,
    -3875, 827, 2217, 650, -1835, -1711, -2893, -357,
    -378, 633, 993, -1907, 1075, 4299, -4124, 3916,
    397, 538, 303, -3026, -3179, 4486, 1656, 3046,
    149, 3961, 6019, 921, 2049, 151, 80, 2673,
    752, -1312, 3404, 7185, 1902, -1156, -510, 378,
    -3536, 1897, 1805, -4, 2222, -124, -2850, 2370,
    693, -1208, 1449, -2020, -229, -966, -1276, -2111,
    -657, -748, 1368, 1873, -3054, -251, -1891, -228,
    -2526, -5048, -492, 6085, -2577, 2099, -2214, -1654,
    478, -1375, -4630, -2765, -1174, 4685, -4571, 2495,
    2218, -2053, 1374, 1707, 845, -2427, -197, 1216,
    -2398, -685, -989, 4133, 761, -2761, 132, 2246,
    563, 224, -200, -4671, 167, -638, 867, 714,
    2143, -508, -830, 875, -495, -1938, 12, -1523,
    2477, 2452, 594, -17361, -8, 154, -5039, 3177,
    2881, 1210, 1743, 3357, -8914, -9716, 2260, 3389,
    -1425, -311, 533, -3377, 1654, 2326, 839, -3645,
    -1429, 3351, 557, 328, 208, -4184, -10016, 1081,
    1902, 567, 1304, 2028, 969, 1402, -1036, 2606,
    2084, 116, -96, -2413, -560, 7506, 242, 2965
};

/* decoder_de_convs_3_act_weight: shape (1, 1), Q-format: s16f14, 1 elements */
static const int16_t decoder_de_convs_3_act_weight[1] = {
    24
};

/* decoder_de_convs_3_bn_bias: shape (16, 1), Q-format: s32f20, 16 elements */
static const int32_t decoder_de_convs_3_bn_bias[16] = {
    331632, 70193, -2009174, -165327, -409272, -1002106, -191449, -939814,
    -479411, 335939, -2290101, -500962, 125700, -1176655, -1043899, -1107652
};

/* decoder_de_convs_3_bn_num_batches_tracked: shape (1, 1), Q-format: s32f20, 1 elements */
static const int32_t decoder_de_convs_3_bn_num_batches_tracked[1] = {
    2147483647
};

/* decoder_de_convs_3_bn_running_mean: shape (16, 1), Q-format: s32f20, 16 elements */
static const int32_t decoder_de_convs_3_bn_running_mean[16] = {
    462651, -1097777, 227409, -1197825, -976517, -649663, -1275691, -614575,
    -315415, 1280626, -1080943, -1724140, 730485, -117675, -791433, -306719
};

/* decoder_de_convs_3_bn_running_var: shape (1, 16), Q-format: u16f14, 16 elements */
static const uint16_t decoder_de_convs_3_bn_running_var[16] = {
    9253, 8481, 17007, 10709, 13347, 14645, 11742, 18348,
    11401, 7068, 19675, 8602, 15749, 24985, 13697, 18140
};

/* decoder_de_convs_3_bn_weight: shape (16, 1), Q-format: u16f14, 16 elements */
static const uint16_t decoder_de_convs_3_bn_weight[16] = {
    8440, 18346, 15717, 25846, 22784, 15218, 20577, 32317,
    21249, 13245, 23575, 8239, 26235, 24771, 24915, 24090
};

/* decoder_de_convs_3_conv_bias: shape (1, 16), Q-format: s32f20, 16 elements */
static const int32_t decoder_de_convs_3_conv_bias[16] = {
    -48909, 259164, -103158, -27921, -200, -137592, 104843, 132665,
    70777, 152738, -61407, 168559, 185013, -100849, -66271, -23755
};

/* decoder_de_convs_3_conv_weight: shape (16, 8, 1, 5), Q-format: s16f13, 640 elements */
static const int16_t decoder_de_convs_3_conv_weight[640] = {
    2292, -2777, 479, -5828, 43, 3329, 286, 8770,
    4686, 8569, 2714, 2542, 4010, 3754, 2514, 1035,
    1635, 1903, 10027, 2054, 861, 4842, -650, 3247,
    3134, 2026, 2683, 3133, 3670, 2270, 1958, 511,
    1019, 3233, 10858, 3902, -2459, 1444, 5514, 2334,
    -2176, 2007, -776, 2134, -787, -960, 775, -3552,
    -1017, -59, -642, 821, -420, 1002, -752, 682,
    -5220, -183, -38, -577, -252, -1401, 987, -1528,
    -489, -282, -969, 95, 1303, -244, -1416, -1191,
    -5090, -1820, -2023, -951, 58, -4620, -363, -132,
    568, -1181, 3014, 630, 1788, 3011, 379, -4087,
    1049, 2678, 1832, 5559, -954, -2011, 304, 2909,
    3284, -3721, -2076, 1920, -331, 7639, 1143, -3494,
    -25, 1499, 3108, -816, 2870, 4757, -1343, 507,
    252, 1097, 3785, 1208, 5659, -1874, -1939, 1043,
    -52, 1124, -1032, 1040, -397, -113, 84, -2905,
    -1349, -19, -712, -2228, -206, -740, 1343, -149,
    -135, 794, 2231, -759, 72, -4455, -756, -7788,
    -2500, -349, -1235, -997, -6213, 653, 200, -861,
    126, 1112, 1151, 826, -801, 1278, -327, -2103,
    1183, -708, 1057, 758, -1799, -16, 871, 2677,
    -1161, 1389, -1355, -1653, 1333, -2786, -795, -608,
    2840, -105, -4437, 1052, 130, -1517, -164, -775,
    -452, 4, 3806, 1102, -2690, -1495, 224, -157,
    2395, -104, 378, -873, -1455, 3408, -3129, 141,
    -1202, 2492, -4364, 5109, 726, 702, -1119, 890,
    -1785, -6425, 917, 2450, 5253, 3126, 5554, 979,
    -2273, 1205, 90, -4830, -391, -16, -336, 2616,
    -817, -616, 1367, 2767, 5418, 660, 6280, -2543,
    -5949, 1382, 2078, 3347, 1598, -775, -3604, 3104,
    2069, -93, 34, 2906, -217, 1053, 239, -6619,
    -1358, 1111, -338, -1000, -2791, -1885, 1059, -781,
    1293, -1135, -3748, 597, -248, -1748, 477, -3206,
    -25, -196, -2003, -2055, -4516, -1634, -856, 796,
    -46, -618, -3731, -139, 403, -2806, -1682, 189,
    -365, 1330, 903, 495, -192, 847, -935, -1957,
    -135, 442, 1633, 1078, -1122, -301, 499, 353,
    -2507, -1346, 202, 117, 51, 505, -763, -3330,
    -103, 658, -1055, -517, -847, 160, 753, -256,
    -2165, -592, -18, 763, -697, -1896, -398, 537,
    1893, 430, -812, -43, 230, 533, -694, 2607,
    -71, 1014, 1059, -294, -249, -451, 305, 231,
    -3060, -799, -747, 685, 1205, 1532, 512, 258,
    231, -1095, 2690, 1759, -713, 1107, -152, -646,
    915, 455, -134, 318, 229, -1199, -624, 317,
    1018, 4369, 4162, 3867, 2065, -1182, 1474, 2613,
    -849, -1427, -399, 839, 3344, 3198, 834, 1426,
    4539, -2564, -824, 892, -686, -868, -420, 553,
    75, 876, -4267, -1092, 4127, 411, -660, -10,
    5311, 2738, 3713, -914, 706, 3588, 3063, 2660,
    -67, 2443, 7790, 1712, 645, -822, -777, -2977,
    -275, 1209, 956, 2482, 3498, 3218, 1486, -644,
    731, 3888, -510, -1859, 5906, 229, 12268, -909,
    5525, -1481, 5224, 1363, 2819, 677, 2417, 869,
    2539, 4471, -106, 3308, 161, -1241, 4209, 316,
    1714, 94, -1035, 1072, 292, -915, -218, -469,
    9, 678, -69, -1446, -946, 622, 432, -106,
    -1145, -2551, -1805, 640, 1628, 1161, 466, 208,
    1378, -600, 4223, 84, 662, 1233, -1167, -1528,
    2202, -1155, -1550, -4, -594, 400, -1958, -1177,
    13, -7616, -2384, -6061, -961, 3060, -1100, 6325,
    -1719, 3957, -2692, -4266, -4982, -5261, -4627, -4733,
    -6836, -5100, -2740, 4800, 3715, 4245, 216, 1642,
    3168, -3253, -323, 10817, -3963, -7530, -1364, -2549,
    -6505, -5916, -6398, -3159, 967, -6039, -9921, -1149,
    -1471, -1005, -214, -1795, -1101, 339, 293, -4681,
    491, -177, -1693, -2855, -2173, 94, -143, -455,
    -4522, 1246, -6388, -852, -864, -1184, -1156, -997,
    228, -349, -3258, 1419, -1119, -3867, 900, -643,
    -2605, 391, -1928, -288, -471, -262, 1233, -43,
    -2133, -357, -1660, -445, -778, -5444, 1111, -12370,
    3181, -4140, -254, -56, 479, 1195, 488, 3401,
    9637, 866, 2903, -3207, -2163, -4697, -1773, -871,
    -709, 1110, 201, -4988, -1560, 1327, -1394, 443,
    -2123, -1032, 2546, 801, -2269, -1196, -576, -1452,
    62, -201, 70, 99, 170, 35, -296, 1949,
    -39, -368, -338, -300, 889, 19, -829, 748,
    -149, 151, -3072, -394, -358, 586, 2309, 201,
    -1016, 74, -774, 699, 1356, 114, 391, -372,
    -184, 897, -149, 93, 19, 376, 424, -182
};

/* decoder_de_convs_4_bn_bias: shape (2, 1), Q-format: s32f20, 2 elements */
static const int32_t decoder_de_convs_4_bn_bias[2] = {
    544162, 264
};

/* decoder_de_convs_4_bn_num_batches_tracked: shape (1, 1), Q-format: s32f20, 1 elements */
static const int32_t decoder_de_convs_4_bn_num_batches_tracked[1] = {
    2147483647
};

/* decoder_de_convs_4_bn_running_mean: shape (2, 1), Q-format: s32f20, 2 elements */
static const int32_t decoder_de_convs_4_bn_running_mean[2] = {
    2815634, -208263
};

/* decoder_de_convs_4_bn_running_var: shape (1, 2), Q-format: u16f14, 2 elements */
static const uint16_t decoder_de_convs_4_bn_running_var[2] = {
    4648, 4972
};

/* decoder_de_convs_4_bn_weight: shape (2, 1), Q-format: u16f14, 2 elements */
static const uint16_t decoder_de_convs_4_bn_weight[2] = {
    18588, 142
};

/* decoder_de_convs_4_conv_bias: shape (1, 2), Q-format: s32f20, 2 elements */
static const int32_t decoder_de_convs_4_conv_bias[2] = {
    1144623, 195813
};

/* decoder_de_convs_4_conv_weight: shape (16, 2, 1, 5), Q-format: s32f18, 160 elements */
static const int32_t decoder_de_convs_4_conv_weight[160] = {
    -7828, -13166, -14576, -12957, -6319, -24692, -75685, -71083,
    -75358, -49467, 5370, 51801, 112099, 99459, 22183, -9171,
    -1238, -6219, -21060, -1046, -64869, -13893, -65534, -15666,
    5250, -11822, 33876, -111851, 23251, -61475, -3264, 22893,
    146027, 45654, -3931, 75228, -46325, -9964, 25486, 31566,
    136714, 85093, -15060, -3554, 19, -79705, 14893, 717,
    76588, 27464, -1932, -72316, -89047, -68151, 10520, -25083,
    10321, 9901, -118778, -4327, 108810, 143058, 7672, -3443,
    -2191, -33697, 51305, -19791, 92363, 51713, -551, 114223,
    21448, -16217, -1415, -6559, -25651, 40868, -1805, -33143,
    -5350, -55146, -118767, -84623, -32701, 11151, 16777, 49011,
    28689, 32101, 18013, 43004, 47891, 43464, 16097, -144363,
    -225545, -232278, -238708, -98353, -163868, -95994, -54210, -122217,
    -3150, 49035, -112748, 6706, 152918, 2456, 53758, -13708,
    2758, 3182, -1931, 59363, 131149, -2326, 25176, 10965,
    7458, 103755, 165731, 171956, 82965, 26522, 15874, 51283,
    54202, 22296, 2669, -7929, 34511, 1648, -3317, 13178,
    -15908, -31891, 46447, 38669, -87656, -14664, -108172, 1318,
    12990, 250904, 49629, 414951, 42010, 145387, -47210, -143393,
    -35828, 22768, 16324, -16586, 138551, 173038, -106256, -15685
};

/* dpgrnn1_inter_fc_bias: shape (1, 16), Q-format: s32f20, 16 elements */
static const int32_t dpgrnn1_inter_fc_bias[16] = {
    -241980, -43612, 257343, -114909, 636842, 228823, -342318, -278903,
    450335, 291626, -682344, 170314, -327666, 198640, -46417, 265337
};

/* dpgrnn1_inter_fc_weight: shape (16, 16), Q-format: s16f13, 256 elements */
static const int16_t dpgrnn1_inter_fc_weight[256] = {
    -868, -361, -741, -3854, 873, 658, -1687, 795,
    -1861, 3122, -406, -102, -427, -668, -3119, 1930,
    -390, -3481, -5318, -4541, 189, -1005, -335, -882,
    -916, 6479, -670, -1132, -679, -581, -4290, 1806,
    232, 2796, 2118, 1659, 1376, 1065, 201, 980,
    2717, -1447, -1418, -1343, 969, 2087, 683, -894,
    -901, -890, -1660, 741, -821, -432, 2166, -552,
    -2496, -2629, 1259, 2180, -222, 1952, -2189, -1292,
    386, -723, -2435, -1262, -2568, -1199, 467, -2219,
    133, 3624, -3984, 230, 2561, -5045, -1084, 1556,
    -6770, -1962, 4122, -412, -2086, 2088, 136, -4118,
    -875, 1239, -5756, 3071, -518, -3147, -1114, -275,
    -4519, -3695, 6, -3574, 1386, -1170, 1908, -626,
    -1297, 5615, -2592, -1717, -3886, -2816, -812, 599,
    -2440, -2434, -507, -3179, -1472, -657, 49, -497,
    -1946, 3990, -1489, -613, -36, -630, -2078, 3795,
    909, -1394, 3431, 550, -2178, -3197, 3561, -2397,
    617, -3222, -3093, -2434, 4872, -2432, 1355, 771,
    -150, 2622, -5960, 1997, -158, -2604, -4537, -1385,
    -6496, -2818, 4777, -3598, -3214, -169, -3974, -759,
    -1465, -2551, 1498, 2284, -1648, -3702, -1272, -3608,
    3910, 3811, -1547, 1626, -5668, 396, 4097, 3261,
    -1853, -1276, 3618, 401, 1822, 4087, -1646, 380,
    1600, -16, 1638, 504, -4178, 3087, 1274, 5133,
    -408, -2169, 4630, -112, -2327, 819, -2311, 1130,
    1671, 4631, -4798, -425, -82, -56, -4861, 1484,
    3394, 1585, 186, -2311, 1698, 770, 1120, 4980,
    -15, -5556, 2481, -3817, 1628, -168, -730, -342,
    -220, 194, 2387, -1349, -607, -3140, 2237, 1480,
    28, -152, 3588, 2078, -770, -919, 1420, -2614,
    -433, 1192, -5564, -197, -881, -2081, 2182, 47,
    -2468, 580, 62, 298, 1002, -1979, -66, -932
};

/* dpgrnn1_inter_ln_bias: shape (33, 16), Q-format: s32f20, 528 elements */
static const int32_t dpgrnn1_inter_ln_bias[528] = {
    -524013, -307298, -155823, 396878, -209696, 28387, 70845, -1279195,
    -237973, -12602, -238436, -157243, -733012, -416225, -547086, 370961,
    214807, 165596, 203168, 465624, 455957, 23984, 49757, -868938,
    -457221, -344580, -198870, -58958, -376142, 438128, 60940, -57690,
    225276, -84857, 212645, 59520, 529858, 197166, 65746, -220502,
    -337675, 28408, -326116, -15028, -36164, 149661, -49994, 498011,
    108758, -421776, -396174, 238281, 177555, -240477, -225820, -90535,
    -231043, 243116, -102908, 171638, 295566, 67295, 57557, 377353,
    -2956, -911145, 16351, 285118, 260402, 366454, 90457, -527921,
    -173065, -150670, -365782, 268649, 275480, 212923, 116035, 162467,
    -13470, -324935, 779947, -156999, 542148, 373576, 38855, -103996,
    198609, -117570, -698731, 536864, 48301, 407696, 163965, 23756,
    -10264, -11325, 395538, -231239, 298424, 22574, 113911, 92028,
    245475, -312954, -876463, 205940, 139486, 265165, 138134, -291222,
    69677, -281819, 100357, -237462, 6762, -432018, 847, 137023,
    389814, 15312, -488600, 371057, 128768, -65401, -58248, -168815,
    141259, -418714, 57518, -78908, -33620, -502350, 202629, 211676,
    420960, 112333, -275578, 380235, 87342, -216297, 2829, 58110,
    139147, -414697, -76413, 132979, 141124, -478034, 291108, 267111,
    258942, -40190, -75554, 243629, 280510, -348151, 252440, 194135,
    186203, -121928, -122066, 262923, 214928, -438998, 346117, 272411,
    215034, 88954, -61413, 88278, 602272, -382773, 322242, 38982,
    78898, 34850, -176971, 294677, 320926, -189410, 277356, 206880,
    205400, 247975, 79592, -92300, 740066, -322668, 368555, 53104,
    -64441, -17333, -307989, 360807, 333510, -33945, 199775, 23133,
    85382, 38785, 189294, -313713, 569954, -278212, 358267, 90979,
    -180746, -76560, -231651, 126046, 285070, -44467, 161352, -18101,
    59163, -49663, 161355, -373462, 419444, -99105, 26671, 178476,
    -248162, -190969, -251194, -38791, 190214, -189321, 87826, -32717,
    -57399, -241833, 145980, -267783, 169408, -42272, -128463, 32034,
    -111855, -326124, -239957, -170632, 178911, -348627, -91831, 14483,
    -147393, -419400, -50950, -25300, -433264, 155246, -226234, -33939,
    23403, -94322, -227286, -173715, -88380, -458949, -160992, 63985,
    -236956, -497674, -30865, -5528, -641624, 41086, -67882, -433219,
    188774, -78008, -99044, -459857, -246945, -381324, -91348, 98124,
    -354747, -457953, -47785, -150648, -299221, -116592, -75597, -282065,
    116994, 21811, 8906, -439549, -151841, -304241, -200019, 115979,
    -106176, -326417, -126954, 22102, -125423, 217496, 176347, -133127,
    130136, 106997, 96103, -575249, -24620, -51752, -388099, -19430,
    9699, -286994, -126121, -86931, -138994, 377232, 145788, 24127,
    107178, 62667, 119204, -524144, -19866, -137407, -345846, 96772,
    -35587, -93749, -253398, -43289, -311340, 278982, -92142, 115068,
    24363, -9582, -23004, -237966, -267097, -195698, -313666, 249917,
    -70201, -126921, -253750, -90158, -193011, 73934, -234999, 191922,
    -8650, 55075, 22969, -156673, -282554, -202458, -199443, 298000,
    -201454, 12542, -255096, 113978, -326946, -150494, -127307, 107981,
    -80033, 34472, 305023, -235563, -351087, -285561, -29326, 316625,
    -83716, 176355, -215511, 190981, 22971, -113451, -121168, 20228,
    -30222, 29519, 245745, -182089, -466637, -263808, -73019, 331460,
    -5178, 95658, 332, 129942, 9847, -149172, 34311, -63747,
    27897, 215576, 47264, -197217, -534347, -229050, 49120, 195045,
    127381, -153616, 179203, 25633, 95169, -196596, 82555, -418747,
    -39789, 263026, 100434, -167967, -538514, -166465, 184098, 160797,
    102534, -255756, 218219, 163953, 43480, -205076, 227478, -501022,
    -84264, 237285, 118922, -101613, -528972, -122888, 102096, 197964,
    68962, -244940, 232628, 113417, 18398, -156909, 388973, -473238,
    -90721, 177021, 236752, -80753, -428112, -133729, 28282, 165602,
    25261, -214879, 411173, 50111, 189315, -62989, 527189, -366048,
    -533, 413510, 156416, -110355, -481642, -76300, 187658, 269574,
    96573, -65881, 271552, -47170, 113759, -30045, 311413, -276434,
    94582, 542794, -27186, -171826, -580870, -155151, 102075, 213614,
    11171, 15905, 357179, 295011, 209944, 12946, 227529, -406738,
    7004, 843038, 16323, -276854, -634417, -284931, 106894, 64916,
    -49547, 102188, -18088, 104732, 11539, -86094, 555734, -358905,
    131751, 263285, -437883, -230160, -666293, 267965, 181890, 14619,
    -260693, -93317, -354956, -318717, -197244, -56206, -302677, -214484
};

/* dpgrnn1_inter_ln_weight: shape (33, 16), Q-format: s16f12, 528 elements */
static const int16_t dpgrnn1_inter_ln_weight[528] = {
    4721, 4195, 6449, 5867, 2462, 3061, 3061, 5636,
    3440, 4639, 4247, 2282, 4285, 2719, 7642, 3352,
    1111, 2488, 4693, 4670, 4719, 4184, 2691, 5084,
    3220, 3670, 2628, 2983, 3987, 5621, 6262, 5792,
    3826, 2293, 3985, 4447, 2693, 2410, 4080, 5371,
    2144, 4863, 3936, 3520, 4905, 6546, 4540, 4169,
    4897, 1288, 4803, 4016, 2717, 1472, 4423, 3972,
    3299, 5177, 3580, 4671, 4142, 5297, 4323, 3295,
    5775, 1002, 4573, 3933, 3800, 2673, 4205, 3160,
    3444, 5740, 3527, 5533, 4214, 4661, 4391, 2763,
    5204, 3524, 3447, 3896, 4567, 3031, 3512, 3423,
    3058, 5600, 3215, 4146, 3127, 5024, 3674, 2728,
    4013, 4774, 3660, 3762, 5830, 3192, 2958, 4307,
    3262, 5782, 3743, 4918, 2695, 4080, 3118, 2502,
    4559, 3518, 4071, 3497, 7402, 3210, 4346, 4184,
    3887, 5649, 3777, 4787, 2008, 3748, 2810, 3463,
    5614, 3966, 4151, 3557, 7944, 2734, 4766, 3689,
    4083, 5323, 4121, 4304, 2353, 3683, 2691, 3231,
    6309, 4535, 4584, 3712, 6585, 2727, 5052, 3306,
    3946, 5378, 4035, 4125, 2618, 3772, 2425, 3175,
    6125, 4769, 4721, 3414, 5164, 2976, 4957, 3174,
    3640, 5044, 3772, 3721, 2875, 3647, 1947, 3423,
    5245, 4620, 4949, 3399, 4290, 2734, 5376, 3247,
    3348, 4622, 3801, 3356, 3017, 3534, 1968, 3485,
    4592, 5020, 4885, 3457, 3732, 2626, 5419, 3308,
    3509, 4439, 4282, 4584, 3490, 3442, 1961, 3910,
    4197, 4985, 4956, 3499, 4559, 2560, 5738, 3439,
    3527, 4493, 4137, 4986, 3349, 3532, 1696, 3518,
    3889, 4327, 4814, 3676, 4907, 2582, 5679, 3760,
    3597, 4114, 4030, 5222, 3237, 3873, 1734, 3894,
    4244, 4045, 5006, 3712, 4955, 2994, 5247, 3959,
    4312, 4106, 3795, 5322, 2854, 4132, 2085, 3684,
    3946, 4472, 5312, 3683, 5444, 3591, 4735, 3750,
    4439, 4290, 3953, 5920, 2571, 4085, 2520, 3788,
    3835, 4251, 4506, 3385, 4465, 3597, 4073, 3053,
    4534, 3938, 4241, 4443, 3008, 4217, 3210, 3778,
    3328, 4383, 4685, 3494, 4361, 4252, 4024, 2888,
    4015, 3802, 4332, 3724, 3537, 4473, 3970, 3388,
    3467, 4512, 4604, 3697, 4085, 4575, 4223, 2316,
    4182, 3514, 4183, 3365, 3961, 4544, 4280, 3196,
    3738, 4971, 4392, 3538, 3139, 4869, 4264, 2398,
    4729, 3358, 4123, 3516, 4124, 4439, 3960, 3433,
    4150, 5363, 3893, 3411, 2584, 4866, 4202, 2716,
    4843, 3184, 3858, 4107, 4154, 4444, 3693, 3537,
    3908, 5068, 3871, 3541, 3006, 5222, 3746, 2736,
    4703, 2885, 3519, 3888, 4255, 4337, 3722, 4222,
    3787, 5207, 3666, 3651, 3496, 5237, 3494, 3097,
    4729, 3202, 3017, 3843, 4357, 4677, 3456, 4190,
    3822, 5293, 3756, 3786, 3468, 4957, 3631, 3635,
    4867, 3774, 3635, 4614, 4363, 4772, 2587, 4174,
    3876, 5551, 4114, 3959, 2839, 5576, 3758, 3570,
    5247, 4186, 4156, 4209, 4249, 4349, 3129, 3974,
    3818, 5122, 4337, 3877, 2770, 5277, 3370, 3395,
    4923, 4333, 3895, 3277, 3541, 4119, 3283, 4378,
    3720, 5233, 4750, 3878, 2659, 4985, 3262, 3641,
    4927, 4142, 4357, 2984, 3415, 4254, 3080, 4689,
    3561, 5303, 4672, 4050, 3012, 5069, 2797, 3872,
    4388, 3942, 4396, 2608, 3251, 4241, 3271, 5083,
    3958, 5401, 4797, 3814, 2863, 4604, 3192, 4292,
    4377, 4048, 4043, 2779, 3326, 4118, 3568, 4885,
    4228, 5668, 5151, 3624, 2686, 3858, 3515, 4255,
    4581, 4698, 4103, 2176, 3621, 4366, 3627, 4829,
    4320, 6519, 5468, 3190, 2615, 4561, 2848, 3124,
    5178, 4947, 4389, 1014, 3223, 5585, 3441, 4622,
    3511, 5657, 6989, 3021, 3855, 4077, 3313, 5247,
    5819, 2973, 4513, 3111, 4222, 6267, 6192, 2963
};

/* dpgrnn1_inter_rnn_rnn1_bias_hh_l0: shape (1, 24), Q-format: s16f10, 24 elements */
static const int16_t dpgrnn1_inter_rnn_rnn1_bias_hh_l0[24] = {
    -255, -316, -160, 154, 37, 134, 171, 461,
    886, 441, 707, 556, 266, -856, -399, -163,
    -302, -397, 188, 432, -181, 250, -451, -677
};

/* dpgrnn1_inter_rnn_rnn1_bias_ih_l0: shape (1, 24), Q-format: s16f10, 24 elements */
static const int16_t dpgrnn1_inter_rnn_rnn1_bias_ih_l0[24] = {
    41, -365, -667, 194, -511, -485, -331, 318,
    748, 412, 336, 396, 95, -559, -880, -397,
    142, 105, -330, -146, -298, -2, -345, -10
};

/* dpgrnn1_inter_rnn_rnn1_weight_hh_l0: shape (8, 24), Q-format: s16f12, 192 elements */
static const int16_t dpgrnn1_inter_rnn_rnn1_weight_hh_l0[192] = {
    -5002, 1509, -391, 4769, -939, -5370, 3593, 1155,
    973, -4106, 3017, 11944, -3191, -4062, 967, 2068,
    2112, 2695, -1320, 650, -1527, 3149, -2192, 1053,
    3275, 3819, 2889, -2969, -8430, -2160, -3042, 2532,
    -3339, 116, -2561, 3549, -786, -3532, -3719, 2568,
    3027, 2031, -501, -2188, -3117, 4555, -1851, -2067,
    1098, -1737, -486, 2878, 456, -1511, 1153, -5264,
    3153, 6890, -149, 1125, -3965, -999, -4268, 2061,
    -1592, 965, 4345, 1880, 624, -2544, -1466, -1648,
    3334, 2054, 914, 760, -4048, 570, -3996, -1626,
    5936, -1235, 3904, -2816, 6970, 1531, 4381, 1111,
    2472, -3218, 3587, 2006, 1341, -689, 959, 1049,
    740, 2870, 3024, 1046, 351, -3560, -285, 2341,
    2982, 1535, -1791, 3314, 1766, -3676, 7361, -7074,
    380, 337, -413, 3022, 1008, -797, -925, 2146,
    2016, 7537, 577, 2093, -1610, 1228, 6103, 4778,
    -412, 2437, 3178, 1569, 10313, -1015, -2934, -8259,
    1603, -771, 2084, 134, -4266, 293, -3922, 307,
    2299, -97, -531, 1363, 1538, 1786, -1979, 815,
    -7597, 705, -1792, 145, 481, -758, -1664, 2619,
    -1454, 3129, -50, -252, -1439, 2435, -2208, 2111,
    -1591, 3844, -6165, -1104, 903, -4608, 1902, -4894,
    4728, 761, 2145, 1768, -1424, -6588, -1014, -8417,
    1088, -1967, -180, -768, 312, 1832, 237, -60
};

/* dpgrnn1_inter_rnn_rnn1_weight_ih_l0: shape (8, 24), Q-format: s16f12, 192 elements */
static const int16_t dpgrnn1_inter_rnn_rnn1_weight_ih_l0[192] = {
    -737, -1399, 1848, 6, 1403, -4929, 2096, -1550,
    -1543, -880, -1091, 1816, -742, -2722, -1053, -1457,
    -415, 1119, 232, 828, -1455, -238, -667, 1462,
    -293, -3048, -1423, 427, 2425, -3937, -106, 540,
    -381, 2349, -29, 229, 1565, 2544, -943, 873,
    -1668, 998, 1181, 309, -305, -1522, -2562, 2032,
    1343, -998, 437, 1421, -1291, 949, 1718, -2189,
    299, -2421, -416, -660, 1834, -1760, 3610, 500,
    635, -1590, 921, -685, -924, -731, -877, -1048,
    4871, -3910, 668, 3389, 251, 952, 439, 367,
    2026, 4272, 871, 2015, 5753, 1657, -4040, -668,
    204, 959, -1492, 655, -1604, -1537, -218, 1332,
    -2231, 941, 2308, 623, 4388, 3174, 1200, 894,
    824, 4121, -682, 652, 2741, 2773, 73, -2331,
    -539, 1589, 1847, 698, 307, -197, -997, 177,
    500, -4736, -4679, 1605, -2932, -1029, -5148, -2746,
    94, -1185, -83, 3061, 3605, -1041, 3370, 2895,
    -402, -155, 1463, 1023, -2208, -1513, -1624, 985,
    -5867, 463, 994, -1673, -2097, 114, 536, -2839,
    -2333, -1955, -229, -2653, -3259, -1021, 5432, 3770,
    858, -1109, -1480, -867, 1008, -214, -865, -1164,
    978, -2940, -5, 59, 2163, 2451, -2132, -77,
    1004, -1434, 657, 150, -1605, -1997, 595, -3337,
    -244, 1156, -298, 2131, -952, 31, 1084, -36
};

/* dpgrnn1_inter_rnn_rnn2_bias_hh_l0: shape (1, 24), Q-format: s16f10, 24 elements */
static const int16_t dpgrnn1_inter_rnn_rnn2_bias_hh_l0[24] = {
    -84, -82, 9, 425, 37, -164, -467, -190,
    910, 9, 69, 142, -353, -340, -329, -59,
    197, 399, 354, 104, -471, 70, 5, 289
};

/* dpgrnn1_inter_rnn_rnn2_bias_ih_l0: shape (1, 24), Q-format: s16f10, 24 elements */
static const int16_t dpgrnn1_inter_rnn_rnn2_bias_ih_l0[24] = {
    342, -179, -598, 328, 212, -277, -476, -184,
    1016, -19, 140, -443, -168, 115, -348, 47,
    76, -423, -4, -126, 257, -37, -360, -573
};

/* dpgrnn1_inter_rnn_rnn2_weight_hh_l0: shape (8, 24), Q-format: s16f12, 192 elements */
static const int16_t dpgrnn1_inter_rnn_rnn2_weight_hh_l0[192] = {
    -103, 8974, 114, 1865, 688, 3023, -1340, 675,
    3724, 6755, 2260, 2605, -2152, -6484, 12562, -5057,
    1285, 1732, -790, -1700, 4109, -1816, 3605, 3873,
    -958, 1193, 2497, -1711, 1727, -299, 3671, 1343,
    -935, -1690, 4893, 1008, 5936, -1084, -4285, 8522,
    1236, -2722, 3448, -999, 886, -314, -1323, 133,
    2651, 476, -10, 278, -725, -188, -43, 5642,
    1662, -2194, 2931, -361, 1141, 1533, -14754, 1912,
    962, -760, 1356, -474, -1445, 2828, 2760, -3504,
    1207, 6015, 891, 99, -656, -1908, -2330, -3616,
    2961, -3507, 3891, -482, 1704, 1808, 3166, -1113,
    -2432, -1043, 3028, -2141, -500, 1438, -201, -5033,
    1872, 666, -4448, 3288, 488, 332, 43, -1734,
    2275, -3329, -3292, 1390, -2990, 1159, -2613, -7014,
    -278, -1776, 4196, 3583, -1154, -2747, -51, 1181,
    -3058, -4043, -1313, 5, 819, -142, 788, -1773,
    -5488, -950, 733, -249, -680, 2155, 3541, 4661,
    -83, 848, -1661, 1979, -874, -584, -3896, 514,
    -1976, 698, 334, 1573, -1304, -1660, -720, 635,
    -3418, 1018, -2825, -151, 3499, 559, 2379, -2460,
    -1127, 237, -759, -2223, -262, -1307, -324, 339,
    -1235, 205, 279, 1603, -2367, 2287, 1243, -2602,
    -1823, 2062, 181, -107, 1991, 3076, 1096, -4717,
    -2351, -2508, -575, 502, -679, -752, -1443, -1323
};

/* dpgrnn1_inter_rnn_rnn2_weight_ih_l0: shape (8, 24), Q-format: s16f12, 192 elements */
static const int16_t dpgrnn1_inter_rnn_rnn2_weight_ih_l0[192] = {
    3219, 819, -78, -143, 2142, -2606, 2017, -1664,
    748, 1641, -3221, -1570, 2472, 508, -3305, -4510,
    -2601, 1905, 1417, 163, 1923, -432, -140, -674,
    823, -937, 5224, -586, 5346, -2364, 2968, -2927,
    1269, -1303, -2101, -1592, 1449, -632, 1239, 657,
    -18, 1554, 893, 1984, -1587, -604, -99, -1509,
    -1028, -642, -2196, -1680, -823, 753, -240, -1178,
    2560, -5, -1193, -1807, -808, 1024, 1443, -3245,
    -99, 780, 583, -485, 607, 718, -1261, 1031,
    1961, -833, 1684, -2967, -2727, 3189, 3933, -3197,
    -530, -2678, 784, 1178, -1193, 762, 1026, -919,
    -1116, 849, 1398, -661, -885, 694, -1349, -2164,
    -1630, 3245, 6173, -907, -400, 730, -1094, 1627,
    2810, -762, 1583, -1437, 2847, -540, 932, 1685,
    1430, 875, -1130, 760, -25, 2161, 206, 948,
    3110, 1461, -1139, -2137, 2071, -4728, -3161, -3139,
    1417, -363, -630, -677, -3146, -1311, -2550, -1329,
    -1160, 314, -1045, 95, 553, 251, 74, -1709,
    -4031, -3346, -1969, 1405, -2954, 1134, -1322, -4696,
    4757, -1412, 6016, 4347, 4431, 2516, 5309, 1085,
    166, 2394, -1974, 517, 589, 2328, 299, 162,
    950, -6842, -2406, 2038, 1147, -2358, 1765, -2922,
    -3199, -176, -4230, 3853, -223, -187, 2114, -2980,
    -572, 853, 635, -2347, 503, 2051, -338, -1684
};

/* dpgrnn1_intra_fc_bias: shape (1, 16), Q-format: s32f20, 16 elements */
static const int32_t dpgrnn1_intra_fc_bias[16] = {
    -61665, 67981, -663239, -100443, 314008, -111524, -86351, -136577,
    186930, 154630, 311500, 76214, -686255, 300472, -40538, -229353
};

/* dpgrnn1_intra_fc_weight: shape (16, 16), Q-format: s16f13, 256 elements */
static const int16_t dpgrnn1_intra_fc_weight[256] = {
    93, -1391, 332, 918, 298, -3637, 884, -1211,
    1416, -1380, -4640, 881, -1309, 2637, -5413, 2396,
    -1259, -962, -5577, -192, 1522, 3150, 2517, 1668,
    -2710, -2358, 2048, 481, -3894, -923, -1512, -2162,
    1062, -4464, -3807, 2348, -2708, 1547, 2556, 319,
    -228, 3158, -2245, 1410, 1188, 4654, -3271, -394,
    3967, -1233, 1500, -2645, 3885, -448, 139, -206,
    1430, -2073, 802, -1976, 3749, 1958, -86, -1142,
    -2078, -3300, -768, 280, -762, -1201, 2977, -1137,
    -3099, -158, -375, 1200, -51, 1287, 1709, 1523,
    4847, 197, -1693, 1596, 1051, -2262, 1437, 6039,
    -20, -1540, -1969, -2031, 2931, -3878, -1408, -229,
    -1442, -452, 178, 519, -2152, -1596, -1361, 3319,
    -2809, -603, -2909, 698, 716, 7314, 3074, 1607,
    235, 3522, -1446, -372, 683, 1173, 1663, 1085,
    -1481, 1598, -1849, 5724, 7447, -3717, -4286, -2291,
    2876, -1143, -6195, -1513, -2270, -3114, 2067, 287,
    96, -1260, 2591, 135, -2441, 581, 771, -200,
    -4171, 1117, 2308, -3125, 764, -2664, 2302, 1876,
    -3682, 121, 4173, -112, -57, 1905, -1939, 7588,
    -1346, 1353, 4072, 1998, 1958, -3224, -1534, 741,
    1756, 2678, 4370, -2660, 435, 2642, -595, -124,
    5356, 4480, -3088, 2366, -2834, -1705, 619, -6,
    -2418, 2043, 9882, 855, -113, 2335, 2063, 1539,
    75, 2452, 2747, 2633, 336, -1566, 334, 1126,
    -263, -204, 1637, -3036, 472, 2140, -1660, -2398,
    -2767, -1807, -1170, 1980, 4249, 869, 3082, -553,
    -2628, 1746, -780, -239, 2406, 2271, -266, 1502,
    1041, -2377, 2158, -1596, 669, -844, -615, -3907,
    3440, 3396, -545, -753, 2095, 263, -3827, -3347,
    1443, -893, -203, 1782, -144, -706, 4471, -725,
    1416, 1381, -1020, -960, 3714, 3007, 1817, 323
};

/* dpgrnn1_intra_ln_bias: shape (33, 16), Q-format: s32f20, 528 elements */
static const int32_t dpgrnn1_intra_ln_bias[528] = {
    -35392, -377840, 5050, 811593, -130982, 216550, 40470, 274215,
    -64150, 273985, -61672, -292147, -599702, -175205, -668927, -357293,
    18221, 15442, -317930, 674773, 300409, 59919, -277430, -73222,
    -457587, 17549, -713787, 215515, 198043, 373290, -174452, -127586,
    215307, 209769, -39014, 654502, 77369, -161083, 206324, 205012,
    -482517, -244997, -568041, 170267, 303174, 39909, 107113, -151160,
    589493, -13525, 48756, 567600, -175405, 143439, 146673, -211556,
    -499892, -234697, -328511, -89658, 223451, 219612, 65366, -180518,
    616765, 52657, 83966, 332577, -86883, 215289, 30682, -330061,
    -261012, 22932, -1001369, -697500, -4339, 6172, -4067, -318827,
    324995, 272601, 153935, 192920, 5312, 29418, 21261, -135854,
    -294300, -52991, -731619, -192043, -27978, -88365, -12208, -552835,
    48724, 333760, -6908, 171058, -97901, 42207, 31582, 61017,
    -226846, 9437, -888409, -211287, -32885, -11578, -1932, -394158,
    -196792, 315219, -8386, 204067, -125494, 131597, 70769, 88351,
    -217853, 23621, -1000813, -211716, 171064, 179226, -31970, -292820,
    -133463, 384756, -50467, 189099, -207350, 183012, 37514, 134150,
    -180819, -28460, -741734, -130061, 333137, -22734, 23645, -237696,
    -11064, 382830, 63489, 162317, -161488, 172208, 89371, 118918,
    -71084, -22330, -413261, -227760, 426825, -252970, -30557, -90017,
    103817, 250398, 155722, 97539, -134068, 92909, 64438, 112138,
    78245, -144024, -69719, -282143, 231852, -158207, -42401, 78200,
    144535, 172258, 220045, -3071, -111059, 116556, 33484, 159206,
    168043, -198178, 176107, -415474, 235966, -307833, -107601, 148894,
    140236, 180862, 159634, -84851, -91619, 166871, 76525, 173187,
    242045, -370262, 481725, -388140, 148465, -237111, -108053, 125220,
    70882, 127487, 113621, -141401, -82843, 254224, 109717, 163534,
    285547, -404367, 493968, -248369, 224249, -256500, -129602, 107445,
    116339, 45711, -67361, -242561, -48283, 270938, 119697, 219917,
    238603, -338966, 234315, -185209, 241088, -159447, -14915, 42872,
    37138, 21087, 4463, -191232, -29996, 251129, 116268, 130377,
    169848, -293948, -87400, -109659, 148112, 70835, 78122, -5655,
    -1238, -6584, 134651, -206534, 58517, 159472, 77498, 101797,
    224734, -217798, -134062, -30309, 59354, 96825, 136804, 67148,
    -112082, 163156, 182365, -169419, -16671, 37662, 55860, 145846,
    -203508, -12136, -197563, 295900, 188680, 19378, 25265, -44332,
    22704, -37225, 60398, -139372, -9922, -149060, -5926, 189484,
    -125420, -14944, -235983, 80263, -55540, -78442, 136788, -33760,
    98806, -83536, -89927, -191814, -23255, -188534, -100039, 188060,
    -200017, 73920, -346147, 79922, 134169, -124271, 84498, -82312,
    65331, -44593, -93069, -233012, 42183, -86046, -28676, 122827,
    -186426, 57772, -421089, 199049, 211696, -42432, 100942, 2258,
    159246, -52793, -122231, -271199, 73924, -8985, 9259, 89686,
    -109918, 18934, -444696, 66910, 226756, -131023, 123556, 30917,
    89613, -48402, -216963, -323488, 5762, -50270, -94840, 72064,
    28659, 21023, -249622, 125764, 233121, -176759, 210129, -17452,
    82750, -26389, -105303, -313699, -3677, -93352, -41706, 58274,
    101049, 35444, -281484, 190675, 75556, -273543, 372060, 36217,
    169380, -66836, -46342, -350703, -7242, -104817, -97749, 111597,
    157132, -13709, -206892, 159840, 17591, -138311, 255402, 30996,
    130829, 9719, 29784, -352142, -19682, -176393, -119085, 178908,
    141446, 70569, -193361, 222286, 208538, -73675, 213404, 65745,
    110815, -44838, 143474, -343277, -45041, -161279, -181413, 195215,
    218102, 92266, -90089, 303230, 161750, -84886, 160223, 83978,
    101308, -44920, 181324, -355118, -62629, -129560, -214065, 255059,
    166604, 126769, -45784, 281319, -2934, -168652, 153029, 119529,
    112413, 8405, 186491, -377830, -150511, -207948, -270365, 361277,
    89808, 45139, 62122, 255785, -37008, -148606, 134813, 168608,
    170682, 121828, 189528, -471831, -141669, -256989, -273533, 476009,
    -157464, 82982, 66688, 349273, -153139, -193091, 53810, 194411,
    66712, 41071, 94308, -538780, -104266, -177928, -350768, 521320,
    -48447, -105160, 112590, 65780, -109433, -9392, 117879, 441561,
    -55327, 98143, 436099, -470356, -141980, 81710, -293263, 339104,
    -177843, 45538, 506171, -244343, -381098, -425312, -23668, 625857,
    -84686, -197291, 414718, -219499, -259582, 43894, 182589, 126420,
    250841, -293348, 229356, -181988, 281114, -147160, 34726, 689345
};

/* dpgrnn1_intra_ln_weight: shape (33, 16), Q-format: s16f12, 528 elements */
static const int16_t dpgrnn1_intra_ln_weight[528] = {
    7603, 4838, 1719, 4002, 3229, 7842, 6793, 712,
    2635, 5136, 684, 3972, 3534, 5235, 2197, 5834,
    4229, 5403, 2381, 3041, 2884, 5258, 5808, 6457,
    390, 7692, 3533, 2789, 1606, 3221, 6287, 8468,
    3916, 4113, 2141, 1416, 3472, 3563, 5955, 6511,
    1271, 5512, 3658, 4582, 2024, 4132, 7167, 6523,
    4747, 3198, 2700, 2010, 4552, 4508, 5397, 4094,
    308, 4908, 3882, 3986, 2682, 3278, 7177, 6522,
    4212, 3012, 3609, 2157, 3897, 3779, 5133, 3208,
    739, 3638, 3837, 3060, 2319, 3035, 4619, 5415,
    4162, 3019, 3861, 3339, 3671, 3010, 4833, 4630,
    1539, 3642, 3726, 3314, 2664, 2785, 3934, 4295,
    3587, 2824, 3211, 3273, 4258, 3412, 4845, 4236,
    2062, 3616, 4005, 2475, 2601, 3164, 3784, 4117,
    2367, 2907, 3019, 2919, 4542, 3938, 4612, 3113,
    1891, 3734, 4148, 2992, 3120, 3472, 3870, 4644,
    2257, 2914, 3073, 2691, 4780, 4210, 4655, 2058,
    1637, 3868, 3650, 3521, 3541, 3779, 3719, 4793,
    2682, 2905, 3635, 2705, 4732, 4058, 4677, 1879,
    1792, 4211, 3191, 3573, 3616, 3864, 3757, 4725,
    3462, 2960, 4064, 3050, 4816, 3520, 4551, 1645,
    2035, 4813, 2441, 3522, 3254, 3538, 3623, 4738,
    3807, 3158, 4440, 3381, 4713, 3244, 4363, 1988,
    2878, 4866, 1828, 3170, 3157, 3509, 3837, 4511,
    3727, 3159, 4501, 3807, 4511, 3315, 4547, 2191,
    3831, 5502, 1444, 4090, 3025, 3364, 3774, 4127,
    3352, 3105, 4373, 3460, 4501, 3504, 4207, 2776,
    4507, 5343, 1209, 5084, 3154, 3368, 3900, 3889,
    3519, 2941, 3968, 3246, 4337, 3489, 3873, 2727,
    4669, 4636, 1534, 5255, 3436, 3054, 3777, 3613,
    3274, 3082, 4158, 3123, 4573, 3589, 3524, 2896,
    5068, 4085, 2085, 4813, 3480, 3352, 3517, 3575,
    3227, 3128, 4404, 3563, 4522, 3574, 3387, 2623,
    4629, 3174, 2474, 4211, 3456, 3325, 3110, 3821,
    3099, 3728, 4527, 3827, 4114, 3181, 3722, 2462,
    4581, 2906, 3299, 3542, 4443, 3587, 3570, 4089,
    3415, 3883, 4220, 4072, 4378, 2822, 4057, 2753,
    4325, 3759, 3994, 3392, 4408, 3488, 3350, 3808,
    3340, 4120, 3935, 4390, 4416, 2908, 4245, 2949,
    4465, 3866, 4561, 3443, 5262, 3793, 3438, 3602,
    3315, 3888, 3955, 4122, 3881, 3004, 3920, 3222,
    4653, 3758, 4912, 3629, 5242, 3930, 3064, 3671,
    3290, 3946, 4049, 4208, 3873, 3110, 3833, 2614,
    5154, 3896, 5068, 2987, 5211, 4092, 3055, 3512,
    3433, 3877, 3798, 4540, 4090, 3282, 3541, 3145,
    5547, 4242, 4337, 3750, 4964, 4227, 2594, 3674,
    3472, 3887, 3958, 4664, 4349, 3043, 3552, 3468,
    5696, 4660, 4222, 3881, 4989, 4581, 2044, 3962,
    3658, 3889, 4016, 4694, 4439, 3138, 3412, 3312,
    5934, 4869, 4434, 3709, 4784, 4744, 2024, 3451,
    3945, 4013, 3992, 4635, 4533, 3361, 3470, 3801,
    5502, 4672, 4227, 3958, 5012, 4124, 2192, 3359,
    4100, 4166, 4170, 4467, 4856, 3149, 3460, 3908,
    5510, 4912, 4190, 3961, 5152, 4241, 2256, 3600,
    4036, 4199, 4268, 4748, 4918, 3083, 3783, 3919,
    5517, 5352, 4388, 3868, 4947, 4236, 2156, 3708,
    4405, 4283, 4184, 4816, 5218, 2854, 4015, 3746,
    4754, 5698, 4402, 3664, 4835, 4203, 1998, 4232,
    4482, 4101, 4213, 4922, 5050, 2991, 4074, 3289,
    4407, 5862, 4581, 4408, 4681, 4240, 2222, 4499,
    3832, 4470, 3838, 4714, 4646, 3514, 4395, 3318,
    4273, 6193, 4413, 3883, 5031, 4385, 1814, 4773,
    3573, 4287, 4678, 4012, 4403, 3831, 5912, 1997,
    4260, 6120, 3480, 2590, 3660, 5592, 2526, 4624,
    4611, 7018, 4759, 5817, 7757, 4623, 6828, 4320,
    4744, 6288, 4064, 5323, 5801, 2417, 443, 5269
};

/* dpgrnn1_intra_rnn_rnn1_bias_hh_l0: shape (1, 12), Q-format: s16f10, 12 elements */
static const int16_t dpgrnn1_intra_rnn_rnn1_bias_hh_l0[12] = {
    -378, 407, -22, 33, 510, -539, -242, -361,
    -144, 565, -491, 458
};

/* dpgrnn1_intra_rnn_rnn1_bias_hh_l0_reverse: shape (1, 12), Q-format: s16f10, 12 elements */
static const int16_t dpgrnn1_intra_rnn_rnn1_bias_hh_l0_reverse[12] = {
    -333, 104, -567, -172, -309, -1185, 52, -247,
    -582, -42, 70, 4
};

/* dpgrnn1_intra_rnn_rnn1_bias_ih_l0: shape (1, 12), Q-format: s16f10, 12 elements */
static const int16_t dpgrnn1_intra_rnn_rnn1_bias_ih_l0[12] = {
    -421, -63, 320, -587, 686, -625, -609, -568,
    -104, 34, 265, 55
};

/* dpgrnn1_intra_rnn_rnn1_bias_ih_l0_reverse: shape (1, 12), Q-format: s16f10, 12 elements */
static const int16_t dpgrnn1_intra_rnn_rnn1_bias_ih_l0_reverse[12] = {
    -8, -685, -62, -214, -584, -872, 218, -513,
    265, -39, 168, -233
};

/* dpgrnn1_intra_rnn_rnn1_weight_hh_l0: shape (4, 12), Q-format: s16f12, 48 elements */
static const int16_t dpgrnn1_intra_rnn_rnn1_weight_hh_l0[48] = {
    -753, 1201, -589, 1336, -9749, 7480, -349, 1034,
    1162, 4169, -3511, -567, 81, 2944, 2771, -1209,
    -1632, -1778, -6561, 1422, -3903, -3262, -1754, -2668,
    3352, -4048, -471, 856, -603, 233, 5379, 1540,
    -1344, 494, -1564, -1023, -3733, -4917, -2635, -515,
    -860, 7904, 2516, -344, 2437, -1310, 534, -678
};

/* dpgrnn1_intra_rnn_rnn1_weight_hh_l0_reverse: shape (4, 12), Q-format: s16f12, 48 elements */
static const int16_t dpgrnn1_intra_rnn_rnn1_weight_hh_l0_reverse[48] = {
    1318, -2834, 2580, -511, -1927, 4782, 1828, 101,
    1585, -2504, -1307, 2360, -1366, -465, -2398, 1422,
    -1977, -7598, -3851, 4334, 3304, -1460, 1162, 2403,
    -524, 5136, -3297, -2745, -271, -5597, -6919, -195,
    -2048, -492, 276, -2025, -4100, -4040, -5849, -637,
    433, 811, 2569, 4010, -691, -2147, 3608, -3781
};

/* dpgrnn1_intra_rnn_rnn1_weight_ih_l0: shape (8, 12), Q-format: s16f12, 96 elements */
static const int16_t dpgrnn1_intra_rnn_rnn1_weight_ih_l0[96] = {
    -4670, -3454, -8305, 3130, -765, -7048, 6995, 5493,
    2821, -424, 660, 2383, 254, 5725, 541, -5294,
    943, -392, 896, -1278, -188, 682, 88, -363,
    1125, -2955, 2448, -3517, -335, -1408, 1606, 2064,
    394, -1471, 2268, -1771, -3193, 3946, -170, 3787,
    1410, -5441, 37, 4760, 539, 3167, -560, 2462,
    -3082, -518, -847, 828, 1408, -8002, -1111, -3184,
    1302, -1992, 1094, 1209, -1123, -5221, 7164, -4678,
    -5304, 1726, 4740, 232, -2499, -291, -3019, -503,
    -3479, 1509, 790, 814, 426, -5160, 3725, -2042,
    -1823, 458, -3308, 1543, -875, -4932, -1321, -1231,
    -1900, 535, -332, -2743, 2940, -831, 2346, 2822
};

/* dpgrnn1_intra_rnn_rnn1_weight_ih_l0_reverse: shape (8, 12), Q-format: s16f12, 96 elements */
static const int16_t dpgrnn1_intra_rnn_rnn1_weight_ih_l0_reverse[96] = {
    2366, -1746, 9610, 1385, 5748, 904, 4330, 5812,
